digraph Tree {
node [shape=box] ;
0 [label="RevolvingUtilizationOfUnsecuredLines_scaled <= -0.0214\ngini = 0.1252\nsamples = 105000\nvalue = [97954, 7046]"] ;
1 [label="RevolvingUtilizationOfUnsecuredLines_scaled <= -0.023\ngini = 0.0663\nsamples = 84136\nvalue = [81250, 2886]"] ;
0 -> 1 [labeldistance=2.5, labelangle=45, headlabel="True"] ;
2 [label="RevolvingUtilizationOfUnsecuredLines_scaled <= -0.0237\ngini = 0.0443\nsamples = 64992\nvalue = [63518, 1474]"] ;
1 -> 2 ;
3 [label="DebtRatio_scaled <= -0.1713\ngini = 0.0368\nsamples = 49624\nvalue = [48693, 931]"] ;
2 -> 3 ;
4 [label="DebtRatio_scaled <= -0.173\ngini = 0.0409\nsamples = 37795\nvalue = [37006, 789]"] ;
3 -> 4 ;
5 [label="MonthlyIncome_scaled <= -0.1945\ngini = 0.033\nsamples = 29989\nvalue = [29486, 503]"] ;
4 -> 5 ;
6 [label="RevolvingUtilizationOfUnsecuredLines_scaled <= -0.0242\ngini = 0.0415\nsamples = 8072\nvalue = [7901, 171]"] ;
5 -> 6 ;
7 [label="DebtRatio_scaled <= -0.1732\ngini = 0.0687\nsamples = 1543\nvalue = [1488, 55]"] ;
6 -> 7 ;
8 [label="MonthlyIncome_scaled <= -0.3225\ngini = 0.0215\nsamples = 551\nvalue = [545, 6]"] ;
7 -> 8 ;
9 [label="MonthlyIncome_scaled <= -0.3442\ngini = 0.0353\nsamples = 334\nvalue = [328, 6]"] ;
8 -> 9 ;
10 [label="MonthlyIncome_scaled <= -0.4012\ngini = 0.0214\nsamples = 277\nvalue = [274, 3]"] ;
9 -> 10 ;
11 [label="MonthlyIncome_scaled <= -0.4022\ngini = 0.0322\nsamples = 183\nvalue = [180, 3]"] ;
10 -> 11 ;
12 [label="MonthlyIncome_scaled <= -0.4746\ngini = 0.0239\nsamples = 165\nvalue = [163, 2]"] ;
11 -> 12 ;
13 [label="gini = 0.0\nsamples = 62\nvalue = [62, 0]"] ;
12 -> 13 ;
14 [label="MonthlyIncome_scaled <= -0.4728\ngini = 0.0381\nsamples = 103\nvalue = [101, 2]"] ;
12 -> 14 ;
15 [label="gini = 0.0\nsamples = 1\nvalue = [0, 1]"] ;
14 -> 15 ;
16 [label="MonthlyIncome_scaled <= -0.4482\ngini = 0.0194\nsamples = 102\nvalue = [101, 1]"] ;
14 -> 16 ;
17 [label="MonthlyIncome_scaled <= -0.4495\ngini = 0.04\nsamples = 49\nvalue = [48, 1]"] ;
16 -> 17 ;
18 [label="gini = 0.0\nsamples = 48\nvalue = [48, 0]"] ;
17 -> 18 ;
19 [label="gini = 0.0\nsamples = 1\nvalue = [0, 1]"] ;
17 -> 19 ;
20 [label="gini = 0.0\nsamples = 53\nvalue = [53, 0]"] ;
16 -> 20 ;
21 [label="DebtRatio_scaled <= -0.1732\ngini = 0.1049\nsamples = 18\nvalue = [17, 1]"] ;
11 -> 21 ;
22 [label="gini = 0.1107\nsamples = 17\nvalue = [16, 1]"] ;
21 -> 22 ;
23 [label="gini = 0.0\nsamples = 1\nvalue = [1, 0]"] ;
21 -> 23 ;
24 [label="gini = 0.0\nsamples = 94\nvalue = [94, 0]"] ;
10 -> 24 ;
25 [label="MonthlyIncome_scaled <= -0.3431\ngini = 0.0997\nsamples = 57\nvalue = [54, 3]"] ;
9 -> 25 ;
26 [label="gini = 0.0\nsamples = 1\nvalue = [0, 1]"] ;
25 -> 26 ;
27 [label="MonthlyIncome_scaled <= -0.3381\ngini = 0.0689\nsamples = 56\nvalue = [54, 2]"] ;
25 -> 27 ;
28 [label="MonthlyIncome_scaled <= -0.3402\ngini = 0.2188\nsamples = 8\nvalue = [7, 1]"] ;
27 -> 28 ;
29 [label="gini = 0.0\nsamples = 4\nvalue = [4, 0]"] ;
28 -> 29 ;
30 [label="DebtRatio_scaled <= -0.1732\ngini = 0.375\nsamples = 4\nvalue = [3, 1]"] ;
28 -> 30 ;
31 [label="gini = 0.4444\nsamples = 3\nvalue = [2, 1]"] ;
30 -> 31 ;
32 [label="gini = 0.0\nsamples = 1\nvalue = [1, 0]"] ;
30 -> 32 ;
33 [label="MonthlyIncome_scaled <= -0.3244\ngini = 0.0408\nsamples = 48\nvalue = [47, 1]"] ;
27 -> 33 ;
34 [label="gini = 0.0\nsamples = 14\nvalue = [14, 0]"] ;
33 -> 34 ;
35 [label="DebtRatio_scaled <= -0.1732\ngini = 0.0571\nsamples = 34\nvalue = [33, 1]"] ;
33 -> 35 ;
36 [label="gini = 0.0689\nsamples = 28\nvalue = [27, 1]"] ;
35 -> 36 ;
37 [label="gini = 0.0\nsamples = 6\nvalue = [6, 0]"] ;
35 -> 37 ;
38 [label="gini = 0.0\nsamples = 217\nvalue = [217, 0]"] ;
8 -> 38 ;
39 [label="MonthlyIncome_scaled <= -0.5047\ngini = 0.0939\nsamples = 992\nvalue = [943, 49]"] ;
7 -> 39 ;
40 [label="DebtRatio_scaled <= -0.1731\ngini = 0.5\nsamples = 2\nvalue = [1, 1]"] ;
39 -> 40 ;
41 [label="gini = 0.0\nsamples = 1\nvalue = [1, 0]"] ;
40 -> 41 ;
42 [label="gini = 0.0\nsamples = 1\nvalue = [0, 1]"] ;
40 -> 42 ;
43 [label="DebtRatio_scaled <= -0.1732\ngini = 0.0923\nsamples = 990\nvalue = [942, 48]"] ;
39 -> 43 ;
44 [label="MonthlyIncome_scaled <= -0.4096\ngini = 0.213\nsamples = 33\nvalue = [29, 4]"] ;
43 -> 44 ;
45 [label="gini = 0.0\nsamples = 8\nvalue = [8, 0]"] ;
44 -> 45 ;
46 [label="MonthlyIncome_scaled <= -0.3917\ngini = 0.2688\nsamples = 25\nvalue = [21, 4]"] ;
44 -> 46 ;
47 [label="DebtRatio_scaled <= -0.1732\ngini = 0.4444\nsamples = 3\nvalue = [1, 2]"] ;
46 -> 47 ;
48 [label="gini = 0.0\nsamples = 2\nvalue = [0, 2]"] ;
47 -> 48 ;
49 [label="gini = 0.0\nsamples = 1\nvalue = [1, 0]"] ;
47 -> 49 ;
50 [label="DebtRatio_scaled <= -0.1732\ngini = 0.1653\nsamples = 22\nvalue = [20, 2]"] ;
46 -> 50 ;
51 [label="MonthlyIncome_scaled <= -0.3192\ngini = 0.0997\nsamples = 19\nvalue = [18, 1]"] ;
50 -> 51 ;
52 [label="MonthlyIncome_scaled <= -0.3285\ngini = 0.2188\nsamples = 8\nvalue = [7, 1]"] ;
51 -> 52 ;
53 [label="gini = 0.0\nsamples = 7\nvalue = [7, 0]"] ;
52 -> 53 ;
54 [label="gini = 0.0\nsamples = 1\nvalue = [0, 1]"] ;
52 -> 54 ;
55 [label="gini = 0.0\nsamples = 11\nvalue = [11, 0]"] ;
51 -> 55 ;
56 [label="MonthlyIncome_scaled <= -0.2854\ngini = 0.4444\nsamples = 3\nvalue = [2, 1]"] ;
50 -> 56 ;
57 [label="gini = 0.0\nsamples = 2\nvalue = [2, 0]"] ;
56 -> 57 ;
58 [label="gini = 0.0\nsamples = 1\nvalue = [0, 1]"] ;
56 -> 58 ;
59 [label="DebtRatio_scaled <= -0.1732\ngini = 0.0877\nsamples = 957\nvalue = [913, 44]"] ;
43 -> 59 ;
60 [label="DebtRatio_scaled <= -0.1732\ngini = 0.1134\nsamples = 315\nvalue = [296, 19]"] ;
59 -> 60 ;
61 [label="MonthlyIncome_scaled <= -0.2003\ngini = 0.1081\nsamples = 314\nvalue = [296, 18]"] ;
60 -> 61 ;
62 [label="DebtRatio_scaled <= -0.1732\ngini = 0.0979\nsamples = 310\nvalue = [294, 16]"] ;
61 -> 62 ;
63 [label="DebtRatio_scaled <= -0.1732\ngini = 0.0522\nsamples = 149\nvalue = [145, 4]"] ;
62 -> 63 ;
64 [label="DebtRatio_scaled <= -0.1732\ngini = 0.101\nsamples = 75\nvalue = [71, 4]"] ;
63 -> 64 ;
65 [label="MonthlyIncome_scaled <= -0.2871\ngini = 0.0778\nsamples = 74\nvalue = [71, 3]"] ;
64 -> 65 ;
66 [label="gini = 0.0\nsamples = 44\nvalue = [44, 0]"] ;
65 -> 66 ;
67 [label="MonthlyIncome_scaled <= -0.2567\ngini = 0.18\nsamples = 30\nvalue = [27, 3]"] ;
65 -> 67 ;
68 [label="MonthlyIncome_scaled <= -0.2617\ngini = 0.3967\nsamples = 11\nvalue = [8, 3]"] ;
67 -> 68 ;
69 [label="DebtRatio_scaled <= -0.1732\ngini = 0.32\nsamples = 10\nvalue = [8, 2]"] ;
68 -> 69 ;
70 [label="gini = 0.0\nsamples = 5\nvalue = [5, 0]"] ;
69 -> 70 ;
71 [label="DebtRatio_scaled <= -0.1732\ngini = 0.48\nsamples = 5\nvalue = [3, 2]"] ;
69 -> 71 ;
72 [label="gini = 0.0\nsamples = 2\nvalue = [0, 2]"] ;
71 -> 72 ;
73 [label="gini = 0.0\nsamples = 3\nvalue = [3, 0]"] ;
71 -> 73 ;
74 [label="gini = 0.0\nsamples = 1\nvalue = [0, 1]"] ;
68 -> 74 ;
75 [label="gini = 0.0\nsamples = 19\nvalue = [19, 0]"] ;
67 -> 75 ;
76 [label="gini = 0.0\nsamples = 1\nvalue = [0, 1]"] ;
64 -> 76 ;
77 [label="gini = 0.0\nsamples = 74\nvalue = [74, 0]"] ;
63 -> 77 ;
78 [label="DebtRatio_scaled <= -0.1732\ngini = 0.138\nsamples = 161\nvalue = [149, 12]"] ;
62 -> 78 ;
79 [label="MonthlyIncome_scaled <= -0.2651\ngini = 0.4444\nsamples = 3\nvalue = [1, 2]"] ;
78 -> 79 ;
80 [label="gini = 0.0\nsamples = 2\nvalue = [0, 2]"] ;
79 -> 80 ;
81 [label="gini = 0.0\nsamples = 1\nvalue = [1, 0]"] ;
79 -> 81 ;
82 [label="MonthlyIncome_scaled <= -0.3661\ngini = 0.1186\nsamples = 158\nvalue = [148, 10]"] ;
78 -> 82 ;
83 [label="MonthlyIncome_scaled <= -0.3707\ngini = 0.3324\nsamples = 19\nvalue = [15, 4]"] ;
82 -> 83 ;
84 [label="MonthlyIncome_scaled <= -0.4266\ngini = 0.2778\nsamples = 18\nvalue = [15, 3]"] ;
83 -> 84 ;
85 [label="gini = 0.0\nsamples = 5\nvalue = [5, 0]"] ;
84 -> 85 ;
86 [label="MonthlyIncome_scaled <= -0.4029\ngini = 0.355\nsamples = 13\nvalue = [10, 3]"] ;
84 -> 86 ;
87 [label="gini = 0.0\nsamples = 2\nvalue = [0, 2]"] ;
86 -> 87 ;
88 [label="MonthlyIncome_scaled <= -0.3862\ngini = 0.1653\nsamples = 11\nvalue = [10, 1]"] ;
86 -> 88 ;
89 [label="gini = 0.0\nsamples = 6\nvalue = [6, 0]"] ;
88 -> 89 ;
90 [label="MonthlyIncome_scaled <= -0.3806\ngini = 0.32\nsamples = 5\nvalue = [4, 1]"] ;
88 -> 90 ;
91 [label="gini = 0.0\nsamples = 1\nvalue = [0, 1]"] ;
90 -> 91 ;
92 [label="gini = 0.0\nsamples = 4\nvalue = [4, 0]"] ;
90 -> 92 ;
93 [label="gini = 0.0\nsamples = 1\nvalue = [0, 1]"] ;
83 -> 93 ;
94 [label="MonthlyIncome_scaled <= -0.2708\ngini = 0.0826\nsamples = 139\nvalue = [133, 6]"] ;
82 -> 94 ;
95 [label="MonthlyIncome_scaled <= -0.3283\ngini = 0.0244\nsamples = 81\nvalue = [80, 1]"] ;
94 -> 95 ;
96 [label="MonthlyIncome_scaled <= -0.3303\ngini = 0.1172\nsamples = 16\nvalue = [15, 1]"] ;
95 -> 96 ;
97 [label="gini = 0.0\nsamples = 15\nvalue = [15, 0]"] ;
96 -> 97 ;
98 [label="gini = 0.0\nsamples = 1\nvalue = [0, 1]"] ;
96 -> 98 ;
99 [label="gini = 0.0\nsamples = 65\nvalue = [65, 0]"] ;
95 -> 99 ;
100 [label="DebtRatio_scaled <= -0.1732\ngini = 0.1576\nsamples = 58\nvalue = [53, 5]"] ;
94 -> 100 ;
101 [label="DebtRatio_scaled <= -0.1732\ngini = 0.1975\nsamples = 45\nvalue = [40, 5]"] ;
100 -> 101 ;
102 [label="MonthlyIncome_scaled <= -0.2106\ngini = 0.142\nsamples = 39\nvalue = [36, 3]"] ;
101 -> 102 ;
103 [label="DebtRatio_scaled <= -0.1732\ngini = 0.0689\nsamples = 28\nvalue = [27, 1]"] ;
102 -> 103 ;
104 [label="DebtRatio_scaled <= -0.1732\ngini = 0.375\nsamples = 4\nvalue = [3, 1]"] ;
103 -> 104 ;
105 [label="gini = 0.0\nsamples = 3\nvalue = [3, 0]"] ;
104 -> 105 ;
106 [label="gini = 0.0\nsamples = 1\nvalue = [0, 1]"] ;
104 -> 106 ;
107 [label="gini = 0.0\nsamples = 24\nvalue = [24, 0]"] ;
103 -> 107 ;
108 [label="MonthlyIncome_scaled <= -0.2075\ngini = 0.2975\nsamples = 11\nvalue = [9, 2]"] ;
102 -> 108 ;
109 [label="gini = 0.0\nsamples = 1\nvalue = [0, 1]"] ;
108 -> 109 ;
110 [label="DebtRatio_scaled <= -0.1732\ngini = 0.18\nsamples = 10\nvalue = [9, 1]"] ;
108 -> 110 ;
111 [label="DebtRatio_scaled <= -0.1732\ngini = 0.375\nsamples = 4\nvalue = [3, 1]"] ;
110 -> 111 ;
112 [label="gini = 0.0\nsamples = 3\nvalue = [3, 0]"] ;
111 -> 112 ;
113 [label="gini = 0.0\nsamples = 1\nvalue = [0, 1]"] ;
111 -> 113 ;
114 [label="gini = 0.0\nsamples = 6\nvalue = [6, 0]"] ;
110 -> 114 ;
115 [label="MonthlyIncome_scaled <= -0.2192\ngini = 0.4444\nsamples = 6\nvalue = [4, 2]"] ;
101 -> 115 ;
116 [label="MonthlyIncome_scaled <= -0.2613\ngini = 0.5\nsamples = 4\nvalue = [2, 2]"] ;
115 -> 116 ;
117 [label="gini = 0.0\nsamples = 1\nvalue = [1, 0]"] ;
116 -> 117 ;
118 [label="MonthlyIncome_scaled <= -0.2429\ngini = 0.4444\nsamples = 3\nvalue = [1, 2]"] ;
116 -> 118 ;
119 [label="gini = 0.0\nsamples = 1\nvalue = [0, 1]"] ;
118 -> 119 ;
120 [label="MonthlyIncome_scaled <= -0.2308\ngini = 0.5\nsamples = 2\nvalue = [1, 1]"] ;
118 -> 120 ;
121 [label="gini = 0.0\nsamples = 1\nvalue = [1, 0]"] ;
120 -> 121 ;
122 [label="gini = 0.0\nsamples = 1\nvalue = [0, 1]"] ;
120 -> 122 ;
123 [label="gini = 0.0\nsamples = 2\nvalue = [2, 0]"] ;
115 -> 123 ;
124 [label="gini = 0.0\nsamples = 13\nvalue = [13, 0]"] ;
100 -> 124 ;
125 [label="DebtRatio_scaled <= -0.1732\ngini = 0.5\nsamples = 4\nvalue = [2, 2]"] ;
61 -> 125 ;
126 [label="gini = 0.0\nsamples = 1\nvalue = [1, 0]"] ;
125 -> 126 ;
127 [label="MonthlyIncome_scaled <= -0.1992\ngini = 0.4444\nsamples = 3\nvalue = [1, 2]"] ;
125 -> 127 ;
128 [label="gini = 0.0\nsamples = 2\nvalue = [0, 2]"] ;
127 -> 128 ;
129 [label="gini = 0.0\nsamples = 1\nvalue = [1, 0]"] ;
127 -> 129 ;
130 [label="gini = 0.0\nsamples = 1\nvalue = [0, 1]"] ;
60 -> 130 ;
131 [label="DebtRatio_scaled <= -0.173\ngini = 0.0748\nsamples = 642\nvalue = [617, 25]"] ;
59 -> 131 ;
132 [label="MonthlyIncome_scaled <= -0.411\ngini = 0.0726\nsamples = 636\nvalue = [612, 24]"] ;
131 -> 132 ;
133 [label="gini = 0.0\nsamples = 53\nvalue = [53, 0]"] ;
132 -> 133 ;
134 [label="MonthlyIncome_scaled <= -0.4086\ngini = 0.0789\nsamples = 583\nvalue = [559, 24]"] ;
132 -> 134 ;
135 [label="DebtRatio_scaled <= -0.1731\ngini = 0.375\nsamples = 4\nvalue = [3, 1]"] ;
134 -> 135 ;
136 [label="gini = 0.0\nsamples = 2\nvalue = [2, 0]"] ;
135 -> 136 ;
137 [label="DebtRatio_scaled <= -0.1731\ngini = 0.5\nsamples = 2\nvalue = [1, 1]"] ;
135 -> 137 ;
138 [label="gini = 0.0\nsamples = 1\nvalue = [0, 1]"] ;
137 -> 138 ;
139 [label="gini = 0.0\nsamples = 1\nvalue = [1, 0]"] ;
137 -> 139 ;
140 [label="MonthlyIncome_scaled <= -0.2912\ngini = 0.0763\nsamples = 579\nvalue = [556, 23]"] ;
134 -> 140 ;
141 [label="MonthlyIncome_scaled <= -0.2921\ngini = 0.097\nsamples = 274\nvalue = [260, 14]"] ;
140 -> 141 ;
142 [label="MonthlyIncome_scaled <= -0.3237\ngini = 0.0852\nsamples = 269\nvalue = [257, 12]"] ;
141 -> 142 ;
143 [label="MonthlyIncome_scaled <= -0.3464\ngini = 0.0568\nsamples = 205\nvalue = [199, 6]"] ;
142 -> 143 ;
144 [label="DebtRatio_scaled <= -0.173\ngini = 0.0874\nsamples = 131\nvalue = [125, 6]"] ;
143 -> 144 ;
145 [label="MonthlyIncome_scaled <= -0.3471\ngini = 0.0762\nsamples = 126\nvalue = [121, 5]"] ;
144 -> 145 ;
146 [label="DebtRatio_scaled <= -0.1731\ngini = 0.0639\nsamples = 121\nvalue = [117, 4]"] ;
145 -> 146 ;
147 [label="DebtRatio_scaled <= -0.1731\ngini = 0.1588\nsamples = 23\nvalue = [21, 2]"] ;
146 -> 147 ;
148 [label="MonthlyIncome_scaled <= -0.357\ngini = 0.0868\nsamples = 22\nvalue = [21, 1]"] ;
147 -> 148 ;
149 [label="gini = 0.0\nsamples = 19\nvalue = [19, 0]"] ;
148 -> 149 ;
150 [label="MonthlyIncome_scaled <= -0.3541\ngini = 0.4444\nsamples = 3\nvalue = [2, 1]"] ;
148 -> 150 ;
151 [label="gini = 0.0\nsamples = 1\nvalue = [0, 1]"] ;
150 -> 151 ;
152 [label="gini = 0.0\nsamples = 2\nvalue = [2, 0]"] ;
150 -> 152 ;
153 [label="gini = 0.0\nsamples = 1\nvalue = [0, 1]"] ;
147 -> 153 ;
154 [label="DebtRatio_scaled <= -0.1731\ngini = 0.04\nsamples = 98\nvalue = [96, 2]"] ;
146 -> 154 ;
155 [label="gini = 0.0\nsamples = 51\nvalue = [51, 0]"] ;
154 -> 155 ;
156 [label="DebtRatio_scaled <= -0.1731\ngini = 0.0815\nsamples = 47\nvalue = [45, 2]"] ;
154 -> 156 ;
157 [label="gini = 0.0\nsamples = 1\nvalue = [0, 1]"] ;
156 -> 157 ;
158 [label="MonthlyIncome_scaled <= -0.3551\ngini = 0.0425\nsamples = 46\nvalue = [45, 1]"] ;
156 -> 158 ;
159 [label="gini = 0.0\nsamples = 35\nvalue = [35, 0]"] ;
158 -> 159 ;
160 [label="MonthlyIncome_scaled <= -0.3545\ngini = 0.1653\nsamples = 11\nvalue = [10, 1]"] ;
158 -> 160 ;
161 [label="DebtRatio_scaled <= -0.1731\ngini = 0.4444\nsamples = 3\nvalue = [2, 1]"] ;
160 -> 161 ;
162 [label="gini = 0.0\nsamples = 1\nvalue = [0, 1]"] ;
161 -> 162 ;
163 [label="gini = 0.0\nsamples = 2\nvalue = [2, 0]"] ;
161 -> 163 ;
164 [label="gini = 0.0\nsamples = 8\nvalue = [8, 0]"] ;
160 -> 164 ;
165 [label="DebtRatio_scaled <= -0.1731\ngini = 0.32\nsamples = 5\nvalue = [4, 1]"] ;
145 -> 165 ;
166 [label="gini = 0.0\nsamples = 3\nvalue = [3, 0]"] ;
165 -> 166 ;
167 [label="DebtRatio_scaled <= -0.1731\ngini = 0.5\nsamples = 2\nvalue = [1, 1]"] ;
165 -> 167 ;
168 [label="gini = 0.0\nsamples = 1\nvalue = [0, 1]"] ;
167 -> 168 ;
169 [label="gini = 0.0\nsamples = 1\nvalue = [1, 0]"] ;
167 -> 169 ;
170 [label="DebtRatio_scaled <= -0.173\ngini = 0.32\nsamples = 5\nvalue = [4, 1]"] ;
144 -> 170 ;
171 [label="gini = 0.0\nsamples = 1\nvalue = [0, 1]"] ;
170 -> 171 ;
172 [label="gini = 0.0\nsamples = 4\nvalue = [4, 0]"] ;
170 -> 172 ;
173 [label="gini = 0.0\nsamples = 74\nvalue = [74, 0]"] ;
143 -> 173 ;
174 [label="MonthlyIncome_scaled <= -0.3235\ngini = 0.1699\nsamples = 64\nvalue = [58, 6]"] ;
142 -> 174 ;
175 [label="gini = 0.0\nsamples = 1\nvalue = [0, 1]"] ;
174 -> 175 ;
176 [label="DebtRatio_scaled <= -0.173\ngini = 0.1461\nsamples = 63\nvalue = [58, 5]"] ;
174 -> 176 ;
177 [label="DebtRatio_scaled <= -0.1731\ngini = 0.1244\nsamples = 60\nvalue = [56, 4]"] ;
176 -> 177 ;
178 [label="gini = 0.0\nsamples = 17\nvalue = [17, 0]"] ;
177 -> 178 ;
179 [label="DebtRatio_scaled <= -0.1731\ngini = 0.1687\nsamples = 43\nvalue = [39, 4]"] ;
177 -> 179 ;
180 [label="gini = 0.0\nsamples = 1\nvalue = [0, 1]"] ;
179 -> 180 ;
181 [label="MonthlyIncome_scaled <= -0.3157\ngini = 0.1327\nsamples = 42\nvalue = [39, 3]"] ;
179 -> 181 ;
182 [label="DebtRatio_scaled <= -0.1731\ngini = 0.2975\nsamples = 11\nvalue = [9, 2]"] ;
181 -> 182 ;
183 [label="DebtRatio_scaled <= -0.1731\ngini = 0.4082\nsamples = 7\nvalue = [5, 2]"] ;
182 -> 183 ;
184 [label="MonthlyIncome_scaled <= -0.3181\ngini = 0.2778\nsamples = 6\nvalue = [5, 1]"] ;
183 -> 184 ;
185 [label="DebtRatio_scaled <= -0.1731\ngini = 0.5\nsamples = 2\nvalue = [1, 1]"] ;
184 -> 185 ;
186 [label="gini = 0.0\nsamples = 1\nvalue = [0, 1]"] ;
185 -> 186 ;
187 [label="gini = 0.0\nsamples = 1\nvalue = [1, 0]"] ;
185 -> 187 ;
188 [label="gini = 0.0\nsamples = 4\nvalue = [4, 0]"] ;
184 -> 188 ;
189 [label="gini = 0.0\nsamples = 1\nvalue = [0, 1]"] ;
183 -> 189 ;
190 [label="gini = 0.0\nsamples = 4\nvalue = [4, 0]"] ;
182 -> 190 ;
191 [label="DebtRatio_scaled <= -0.1731\ngini = 0.0624\nsamples = 31\nvalue = [30, 1]"] ;
181 -> 191 ;
192 [label="gini = 0.0\nsamples = 22\nvalue = [22, 0]"] ;
191 -> 192 ;
193 [label="DebtRatio_scaled <= -0.1731\ngini = 0.1975\nsamples = 9\nvalue = [8, 1]"] ;
191 -> 193 ;
194 [label="gini = 0.0\nsamples = 1\nvalue = [0, 1]"] ;
193 -> 194 ;
195 [label="gini = 0.0\nsamples = 8\nvalue = [8, 0]"] ;
193 -> 195 ;
196 [label="MonthlyIncome_scaled <= -0.3167\ngini = 0.4444\nsamples = 3\nvalue = [2, 1]"] ;
176 -> 196 ;
197 [label="gini = 0.0\nsamples = 1\nvalue = [0, 1]"] ;
196 -> 197 ;
198 [label="gini = 0.0\nsamples = 2\nvalue = [2, 0]"] ;
196 -> 198 ;
199 [label="DebtRatio_scaled <= -0.1731\ngini = 0.48\nsamples = 5\nvalue = [3, 2]"] ;
141 -> 199 ;
200 [label="gini = 0.0\nsamples = 2\nvalue = [0, 2]"] ;
199 -> 200 ;
201 [label="gini = 0.0\nsamples = 3\nvalue = [3, 0]"] ;
199 -> 201 ;
202 [label="MonthlyIncome_scaled <= -0.258\ngini = 0.0573\nsamples = 305\nvalue = [296, 9]"] ;
140 -> 202 ;
203 [label="DebtRatio_scaled <= -0.1731\ngini = 0.0189\nsamples = 105\nvalue = [104, 1]"] ;
202 -> 203 ;
204 [label="gini = 0.0\nsamples = 68\nvalue = [68, 0]"] ;
203 -> 204 ;
205 [label="DebtRatio_scaled <= -0.1731\ngini = 0.0526\nsamples = 37\nvalue = [36, 1]"] ;
203 -> 205 ;
206 [label="gini = 0.0\nsamples = 1\nvalue = [0, 1]"] ;
205 -> 206 ;
207 [label="gini = 0.0\nsamples = 36\nvalue = [36, 0]"] ;
205 -> 207 ;
208 [label="MonthlyIncome_scaled <= -0.2564\ngini = 0.0768\nsamples = 200\nvalue = [192, 8]"] ;
202 -> 208 ;
209 [label="DebtRatio_scaled <= -0.1731\ngini = 0.5\nsamples = 2\nvalue = [1, 1]"] ;
208 -> 209 ;
210 [label="gini = 0.0\nsamples = 1\nvalue = [1, 0]"] ;
209 -> 210 ;
211 [label="gini = 0.0\nsamples = 1\nvalue = [0, 1]"] ;
209 -> 211 ;
212 [label="MonthlyIncome_scaled <= -0.2524\ngini = 0.0682\nsamples = 198\nvalue = [191, 7]"] ;
208 -> 212 ;
213 [label="MonthlyIncome_scaled <= -0.2537\ngini = 0.18\nsamples = 10\nvalue = [9, 1]"] ;
212 -> 213 ;
214 [label="gini = 0.0\nsamples = 9\nvalue = [9, 0]"] ;
213 -> 214 ;
215 [label="gini = 0.0\nsamples = 1\nvalue = [0, 1]"] ;
213 -> 215 ;
216 [label="DebtRatio_scaled <= -0.1731\ngini = 0.0618\nsamples = 188\nvalue = [182, 6]"] ;
212 -> 216 ;
217 [label="DebtRatio_scaled <= -0.1731\ngini = 0.082\nsamples = 140\nvalue = [134, 6]"] ;
216 -> 217 ;
218 [label="DebtRatio_scaled <= -0.1731\ngini = 0.0694\nsamples = 139\nvalue = [134, 5]"] ;
217 -> 218 ;
219 [label="gini = 0.0\nsamples = 28\nvalue = [28, 0]"] ;
218 -> 219 ;
220 [label="DebtRatio_scaled <= -0.1731\ngini = 0.086\nsamples = 111\nvalue = [106, 5]"] ;
218 -> 220 ;
221 [label="gini = 0.0\nsamples = 1\nvalue = [0, 1]"] ;
220 -> 221 ;
222 [label="MonthlyIncome_scaled <= -0.2125\ngini = 0.0701\nsamples = 110\nvalue = [106, 4]"] ;
220 -> 222 ;
223 [label="MonthlyIncome_scaled <= -0.2133\ngini = 0.1092\nsamples = 69\nvalue = [65, 4]"] ;
222 -> 223 ;
224 [label="DebtRatio_scaled <= -0.1731\ngini = 0.0843\nsamples = 68\nvalue = [65, 3]"] ;
223 -> 224 ;
225 [label="DebtRatio_scaled <= -0.1731\ngini = 0.1327\nsamples = 42\nvalue = [39, 3]"] ;
224 -> 225 ;
226 [label="MonthlyIncome_scaled <= -0.2296\ngini = 0.0928\nsamples = 41\nvalue = [39, 2]"] ;
225 -> 226 ;
227 [label="MonthlyIncome_scaled <= -0.2313\ngini = 0.1472\nsamples = 25\nvalue = [23, 2]"] ;
226 -> 227 ;
228 [label="DebtRatio_scaled <= -0.1731\ngini = 0.0832\nsamples = 23\nvalue = [22, 1]"] ;
227 -> 228 ;
229 [label="DebtRatio_scaled <= -0.1731\ngini = 0.2449\nsamples = 7\nvalue = [6, 1]"] ;
228 -> 229 ;
230 [label="gini = 0.0\nsamples = 6\nvalue = [6, 0]"] ;
229 -> 230 ;
231 [label="gini = 0.0\nsamples = 1\nvalue = [0, 1]"] ;
229 -> 231 ;
232 [label="gini = 0.0\nsamples = 16\nvalue = [16, 0]"] ;
228 -> 232 ;
233 [label="DebtRatio_scaled <= -0.1731\ngini = 0.5\nsamples = 2\nvalue = [1, 1]"] ;
227 -> 233 ;
234 [label="gini = 0.0\nsamples = 1\nvalue = [1, 0]"] ;
233 -> 234 ;
235 [label="gini = 0.0\nsamples = 1\nvalue = [0, 1]"] ;
233 -> 235 ;
236 [label="gini = 0.0\nsamples = 16\nvalue = [16, 0]"] ;
226 -> 236 ;
237 [label="gini = 0.0\nsamples = 1\nvalue = [0, 1]"] ;
225 -> 237 ;
238 [label="gini = 0.0\nsamples = 26\nvalue = [26, 0]"] ;
224 -> 238 ;
239 [label="gini = 0.0\nsamples = 1\nvalue = [0, 1]"] ;
223 -> 239 ;
240 [label="gini = 0.0\nsamples = 41\nvalue = [41, 0]"] ;
222 -> 240 ;
241 [label="gini = 0.0\nsamples = 1\nvalue = [0, 1]"] ;
217 -> 241 ;
242 [label="gini = 0.0\nsamples = 48\nvalue = [48, 0]"] ;
216 -> 242 ;
243 [label="MonthlyIncome_scaled <= -0.2151\ngini = 0.2778\nsamples = 6\nvalue = [5, 1]"] ;
131 -> 243 ;
244 [label="gini = 0.0\nsamples = 5\nvalue = [5, 0]"] ;
243 -> 244 ;
245 [label="gini = 0.0\nsamples = 1\nvalue = [0, 1]"] ;
243 -> 245 ;
246 [label="MonthlyIncome_scaled <= -0.1945\ngini = 0.0349\nsamples = 6529\nvalue = [6413, 116]"] ;
6 -> 246 ;
247 [label="RevolvingUtilizationOfUnsecuredLines_scaled <= -0.0239\ngini = 0.0346\nsamples = 6526\nvalue = [6411, 115]"] ;
246 -> 247 ;
248 [label="MonthlyIncome_scaled <= -0.3626\ngini = 0.0281\nsamples = 5056\nvalue = [4984, 72]"] ;
247 -> 248 ;
249 [label="DebtRatio_scaled <= -0.173\ngini = 0.0072\nsamples = 825\nvalue = [822, 3]"] ;
248 -> 249 ;
250 [label="RevolvingUtilizationOfUnsecuredLines_scaled <= -0.024\ngini = 0.0051\nsamples = 788\nvalue = [786, 2]"] ;
249 -> 250 ;
251 [label="gini = 0.0\nsamples = 647\nvalue = [647, 0]"] ;
250 -> 251 ;
252 [label="RevolvingUtilizationOfUnsecuredLines_scaled <= -0.024\ngini = 0.028\nsamples = 141\nvalue = [139, 2]"] ;
250 -> 252 ;
253 [label="gini = 0.0\nsamples = 1\nvalue = [0, 1]"] ;
252 -> 253 ;
254 [label="RevolvingUtilizationOfUnsecuredLines_scaled <= -0.024\ngini = 0.0142\nsamples = 140\nvalue = [139, 1]"] ;
252 -> 254 ;
255 [label="MonthlyIncome_scaled <= -0.4627\ngini = 0.1244\nsamples = 15\nvalue = [14, 1]"] ;
254 -> 255 ;
256 [label="DebtRatio_scaled <= -0.1732\ngini = 0.5\nsamples = 2\nvalue = [1, 1]"] ;
255 -> 256 ;
257 [label="gini = 0.0\nsamples = 1\nvalue = [0, 1]"] ;
256 -> 257 ;
258 [label="gini = 0.0\nsamples = 1\nvalue = [1, 0]"] ;
256 -> 258 ;
259 [label="gini = 0.0\nsamples = 13\nvalue = [13, 0]"] ;
255 -> 259 ;
260 [label="gini = 0.0\nsamples = 125\nvalue = [125, 0]"] ;
254 -> 260 ;
261 [label="DebtRatio_scaled <= -0.173\ngini = 0.0526\nsamples = 37\nvalue = [36, 1]"] ;
249 -> 261 ;
262 [label="gini = 0.0\nsamples = 1\nvalue = [0, 1]"] ;
261 -> 262 ;
263 [label="gini = 0.0\nsamples = 36\nvalue = [36, 0]"] ;
261 -> 263 ;
264 [label="RevolvingUtilizationOfUnsecuredLines_scaled <= -0.024\ngini = 0.0321\nsamples = 4231\nvalue = [4162, 69]"] ;
248 -> 264 ;
265 [label="RevolvingUtilizationOfUnsecuredLines_scaled <= -0.024\ngini = 0.0345\nsamples = 3756\nvalue = [3690, 66]"] ;
264 -> 265 ;
266 [label="RevolvingUtilizationOfUnsecuredLines_scaled <= -0.0241\ngini = 0.0328\nsamples = 3657\nvalue = [3596, 61]"] ;
265 -> 266 ;
267 [label="RevolvingUtilizationOfUnsecuredLines_scaled <= -0.0241\ngini = 0.0377\nsamples = 2340\nvalue = [2295, 45]"] ;
266 -> 267 ;
268 [label="MonthlyIncome_scaled <= -0.323\ngini = 0.0354\nsamples = 2276\nvalue = [2235, 41]"] ;
267 -> 268 ;
269 [label="RevolvingUtilizationOfUnsecuredLines_scaled <= -0.0241\ngini = 0.0182\nsamples = 544\nvalue = [539, 5]"] ;
268 -> 269 ;
270 [label="RevolvingUtilizationOfUnsecuredLines_scaled <= -0.0242\ngini = 0.0148\nsamples = 536\nvalue = [532, 4]"] ;
269 -> 270 ;
271 [label="RevolvingUtilizationOfUnsecuredLines_scaled <= -0.0242\ngini = 0.0605\nsamples = 64\nvalue = [62, 2]"] ;
270 -> 271 ;
272 [label="RevolvingUtilizationOfUnsecuredLines_scaled <= -0.0242\ngini = 0.0312\nsamples = 63\nvalue = [62, 1]"] ;
271 -> 272 ;
273 [label="gini = 0.0\nsamples = 56\nvalue = [56, 0]"] ;
272 -> 273 ;
274 [label="DebtRatio_scaled <= -0.1732\ngini = 0.2449\nsamples = 7\nvalue = [6, 1]"] ;
272 -> 274 ;
275 [label="gini = 0.0\nsamples = 5\nvalue = [5, 0]"] ;
274 -> 275 ;
276 [label="DebtRatio_scaled <= -0.1731\ngini = 0.5\nsamples = 2\nvalue = [1, 1]"] ;
274 -> 276 ;
277 [label="gini = 0.0\nsamples = 1\nvalue = [0, 1]"] ;
276 -> 277 ;
278 [label="gini = 0.0\nsamples = 1\nvalue = [1, 0]"] ;
276 -> 278 ;
279 [label="gini = 0.0\nsamples = 1\nvalue = [0, 1]"] ;
271 -> 279 ;
280 [label="MonthlyIncome_scaled <= -0.347\ngini = 0.0084\nsamples = 472\nvalue = [470, 2]"] ;
270 -> 280 ;
281 [label="MonthlyIncome_scaled <= -0.3474\ngini = 0.0238\nsamples = 166\nvalue = [164, 2]"] ;
280 -> 281 ;
282 [label="RevolvingUtilizationOfUnsecuredLines_scaled <= -0.0242\ngini = 0.0132\nsamples = 150\nvalue = [149, 1]"] ;
281 -> 282 ;
283 [label="gini = 0.0\nsamples = 90\nvalue = [90, 0]"] ;
282 -> 283 ;
284 [label="RevolvingUtilizationOfUnsecuredLines_scaled <= -0.0242\ngini = 0.0328\nsamples = 60\nvalue = [59, 1]"] ;
282 -> 284 ;
285 [label="gini = 0.0\nsamples = 1\nvalue = [0, 1]"] ;
284 -> 285 ;
286 [label="gini = 0.0\nsamples = 59\nvalue = [59, 0]"] ;
284 -> 286 ;
287 [label="DebtRatio_scaled <= -0.1732\ngini = 0.1172\nsamples = 16\nvalue = [15, 1]"] ;
281 -> 287 ;
288 [label="DebtRatio_scaled <= -0.1732\ngini = 0.375\nsamples = 4\nvalue = [3, 1]"] ;
287 -> 288 ;
289 [label="gini = 0.0\nsamples = 3\nvalue = [3, 0]"] ;
288 -> 289 ;
290 [label="gini = 0.0\nsamples = 1\nvalue = [0, 1]"] ;
288 -> 290 ;
291 [label="gini = 0.0\nsamples = 12\nvalue = [12, 0]"] ;
287 -> 291 ;
292 [label="gini = 0.0\nsamples = 306\nvalue = [306, 0]"] ;
280 -> 292 ;
293 [label="MonthlyIncome_scaled <= -0.3496\ngini = 0.2188\nsamples = 8\nvalue = [7, 1]"] ;
269 -> 293 ;
294 [label="gini = 0.0\nsamples = 1\nvalue = [0, 1]"] ;
293 -> 294 ;
295 [label="gini = 0.0\nsamples = 7\nvalue = [7, 0]"] ;
293 -> 295 ;
296 [label="MonthlyIncome_scaled <= -0.3226\ngini = 0.0407\nsamples = 1732\nvalue = [1696, 36]"] ;
268 -> 296 ;
297 [label="gini = 0.0\nsamples = 1\nvalue = [0, 1]"] ;
296 -> 297 ;
298 [label="DebtRatio_scaled <= -0.1732\ngini = 0.0396\nsamples = 1731\nvalue = [1696, 35]"] ;
296 -> 298 ;
299 [label="MonthlyIncome_scaled <= -0.1958\ngini = 0.0291\nsamples = 1017\nvalue = [1002, 15]"] ;
298 -> 299 ;
300 [label="RevolvingUtilizationOfUnsecuredLines_scaled <= -0.0242\ngini = 0.0273\nsamples = 1010\nvalue = [996, 14]"] ;
299 -> 300 ;
301 [label="MonthlyIncome_scaled <= -0.2902\ngini = 0.1653\nsamples = 11\nvalue = [10, 1]"] ;
300 -> 301 ;
302 [label="MonthlyIncome_scaled <= -0.3012\ngini = 0.5\nsamples = 2\nvalue = [1, 1]"] ;
301 -> 302 ;
303 [label="gini = 0.0\nsamples = 1\nvalue = [1, 0]"] ;
302 -> 303 ;
304 [label="gini = 0.0\nsamples = 1\nvalue = [0, 1]"] ;
302 -> 304 ;
305 [label="gini = 0.0\nsamples = 9\nvalue = [9, 0]"] ;
301 -> 305 ;
306 [label="RevolvingUtilizationOfUnsecuredLines_scaled <= -0.0242\ngini = 0.0257\nsamples = 999\nvalue = [986, 13]"] ;
300 -> 306 ;
307 [label="gini = 0.0\nsamples = 166\nvalue = [166, 0]"] ;
306 -> 307 ;
308 [label="RevolvingUtilizationOfUnsecuredLines_scaled <= -0.0242\ngini = 0.0307\nsamples = 833\nvalue = [820, 13]"] ;
306 -> 308 ;
309 [label="gini = 0.0\nsamples = 1\nvalue = [0, 1]"] ;
308 -> 309 ;
310 [label="RevolvingUtilizationOfUnsecuredLines_scaled <= -0.0241\ngini = 0.0284\nsamples = 832\nvalue = [820, 12]"] ;
308 -> 310 ;
311 [label="RevolvingUtilizationOfUnsecuredLines_scaled <= -0.0241\ngini = 0.0339\nsamples = 696\nvalue = [684, 12]"] ;
310 -> 311 ;
312 [label="RevolvingUtilizationOfUnsecuredLines_scaled <= -0.0242\ngini = 0.0312\nsamples = 694\nvalue = [683, 11]"] ;
311 -> 312 ;
313 [label="MonthlyIncome_scaled <= -0.3157\ngini = 0.02\nsamples = 396\nvalue = [392, 4]"] ;
312 -> 313 ;
314 [label="DebtRatio_scaled <= -0.1732\ngini = 0.18\nsamples = 10\nvalue = [9, 1]"] ;
313 -> 314 ;
315 [label="DebtRatio_scaled <= -0.1732\ngini = 0.4444\nsamples = 3\nvalue = [2, 1]"] ;
314 -> 315 ;
316 [label="gini = 0.0\nsamples = 2\nvalue = [2, 0]"] ;
315 -> 316 ;
317 [label="gini = 0.0\nsamples = 1\nvalue = [0, 1]"] ;
315 -> 317 ;
318 [label="gini = 0.0\nsamples = 7\nvalue = [7, 0]"] ;
314 -> 318 ;
319 [label="DebtRatio_scaled <= -0.1732\ngini = 0.0154\nsamples = 386\nvalue = [383, 3]"] ;
313 -> 319 ;
320 [label="RevolvingUtilizationOfUnsecuredLines_scaled <= -0.0242\ngini = 0.0063\nsamples = 314\nvalue = [313, 1]"] ;
319 -> 320 ;
321 [label="RevolvingUtilizationOfUnsecuredLines_scaled <= -0.0242\ngini = 0.0357\nsamples = 55\nvalue = [54, 1]"] ;
320 -> 321 ;
322 [label="gini = 0.0\nsamples = 54\nvalue = [54, 0]"] ;
321 -> 322 ;
323 [label="gini = 0.0\nsamples = 1\nvalue = [0, 1]"] ;
321 -> 323 ;
324 [label="gini = 0.0\nsamples = 259\nvalue = [259, 0]"] ;
320 -> 324 ;
325 [label="DebtRatio_scaled <= -0.1732\ngini = 0.054\nsamples = 72\nvalue = [70, 2]"] ;
319 -> 325 ;
326 [label="RevolvingUtilizationOfUnsecuredLines_scaled <= -0.0242\ngini = 0.5\nsamples = 2\nvalue = [1, 1]"] ;
325 -> 326 ;
327 [label="gini = 0.0\nsamples = 1\nvalue = [1, 0]"] ;
326 -> 327 ;
328 [label="gini = 0.0\nsamples = 1\nvalue = [0, 1]"] ;
326 -> 328 ;
329 [label="MonthlyIncome_scaled <= -0.2079\ngini = 0.0282\nsamples = 70\nvalue = [69, 1]"] ;
325 -> 329 ;
330 [label="gini = 0.0\nsamples = 63\nvalue = [63, 0]"] ;
329 -> 330 ;
331 [label="DebtRatio_scaled <= -0.1732\ngini = 0.2449\nsamples = 7\nvalue = [6, 1]"] ;
329 -> 331 ;
332 [label="DebtRatio_scaled <= -0.1732\ngini = 0.4444\nsamples = 3\nvalue = [2, 1]"] ;
331 -> 332 ;
333 [label="gini = 0.0\nsamples = 2\nvalue = [2, 0]"] ;
332 -> 333 ;
334 [label="gini = 0.0\nsamples = 1\nvalue = [0, 1]"] ;
332 -> 334 ;
335 [label="gini = 0.0\nsamples = 4\nvalue = [4, 0]"] ;
331 -> 335 ;
336 [label="RevolvingUtilizationOfUnsecuredLines_scaled <= -0.0242\ngini = 0.0459\nsamples = 298\nvalue = [291, 7]"] ;
312 -> 336 ;
337 [label="DebtRatio_scaled <= -0.1732\ngini = 0.1567\nsamples = 35\nvalue = [32, 3]"] ;
336 -> 337 ;
338 [label="gini = 0.0\nsamples = 14\nvalue = [14, 0]"] ;
337 -> 338 ;
339 [label="DebtRatio_scaled <= -0.1732\ngini = 0.2449\nsamples = 21\nvalue = [18, 3]"] ;
337 -> 339 ;
340 [label="gini = 0.0\nsamples = 2\nvalue = [0, 2]"] ;
339 -> 340 ;
341 [label="DebtRatio_scaled <= -0.1732\ngini = 0.0997\nsamples = 19\nvalue = [18, 1]"] ;
339 -> 341 ;
342 [label="DebtRatio_scaled <= -0.1732\ngini = 0.32\nsamples = 5\nvalue = [4, 1]"] ;
341 -> 342 ;
343 [label="gini = 0.0\nsamples = 4\nvalue = [4, 0]"] ;
342 -> 343 ;
344 [label="gini = 0.0\nsamples = 1\nvalue = [0, 1]"] ;
342 -> 344 ;
345 [label="gini = 0.0\nsamples = 14\nvalue = [14, 0]"] ;
341 -> 345 ;
346 [label="DebtRatio_scaled <= -0.1732\ngini = 0.03\nsamples = 263\nvalue = [259, 4]"] ;
336 -> 346 ;
347 [label="DebtRatio_scaled <= -0.1732\ngini = 0.0473\nsamples = 165\nvalue = [161, 4]"] ;
346 -> 347 ;
348 [label="RevolvingUtilizationOfUnsecuredLines_scaled <= -0.0242\ngini = 0.0359\nsamples = 164\nvalue = [161, 3]"] ;
347 -> 348 ;
349 [label="RevolvingUtilizationOfUnsecuredLines_scaled <= -0.0242\ngini = 0.095\nsamples = 40\nvalue = [38, 2]"] ;
348 -> 349 ;
350 [label="gini = 0.0\nsamples = 36\nvalue = [36, 0]"] ;
349 -> 350 ;
351 [label="RevolvingUtilizationOfUnsecuredLines_scaled <= -0.0242\ngini = 0.5\nsamples = 4\nvalue = [2, 2]"] ;
349 -> 351 ;
352 [label="gini = 0.0\nsamples = 1\nvalue = [0, 1]"] ;
351 -> 352 ;
353 [label="DebtRatio_scaled <= -0.1732\ngini = 0.4444\nsamples = 3\nvalue = [2, 1]"] ;
351 -> 353 ;
354 [label="gini = 0.0\nsamples = 2\nvalue = [2, 0]"] ;
353 -> 354 ;
355 [label="gini = 0.0\nsamples = 1\nvalue = [0, 1]"] ;
353 -> 355 ;
356 [label="DebtRatio_scaled <= -0.1732\ngini = 0.016\nsamples = 124\nvalue = [123, 1]"] ;
348 -> 356 ;
357 [label="MonthlyIncome_scaled <= -0.2359\ngini = 0.0907\nsamples = 21\nvalue = [20, 1]"] ;
356 -> 357 ;
358 [label="gini = 0.0\nsamples = 15\nvalue = [15, 0]"] ;
357 -> 358 ;
359 [label="MonthlyIncome_scaled <= -0.2306\ngini = 0.2778\nsamples = 6\nvalue = [5, 1]"] ;
357 -> 359 ;
360 [label="gini = 0.0\nsamples = 1\nvalue = [0, 1]"] ;
359 -> 360 ;
361 [label="gini = 0.0\nsamples = 5\nvalue = [5, 0]"] ;
359 -> 361 ;
362 [label="gini = 0.0\nsamples = 103\nvalue = [103, 0]"] ;
356 -> 362 ;
363 [label="gini = 0.0\nsamples = 1\nvalue = [0, 1]"] ;
347 -> 363 ;
364 [label="gini = 0.0\nsamples = 98\nvalue = [98, 0]"] ;
346 -> 364 ;
365 [label="MonthlyIncome_scaled <= -0.2636\ngini = 0.5\nsamples = 2\nvalue = [1, 1]"] ;
311 -> 365 ;
366 [label="gini = 0.0\nsamples = 1\nvalue = [0, 1]"] ;
365 -> 366 ;
367 [label="gini = 0.0\nsamples = 1\nvalue = [1, 0]"] ;
365 -> 367 ;
368 [label="gini = 0.0\nsamples = 136\nvalue = [136, 0]"] ;
310 -> 368 ;
369 [label="RevolvingUtilizationOfUnsecuredLines_scaled <= -0.0241\ngini = 0.2449\nsamples = 7\nvalue = [6, 1]"] ;
299 -> 369 ;
370 [label="gini = 0.0\nsamples = 6\nvalue = [6, 0]"] ;
369 -> 370 ;
371 [label="gini = 0.0\nsamples = 1\nvalue = [0, 1]"] ;
369 -> 371 ;
372 [label="DebtRatio_scaled <= -0.1732\ngini = 0.0545\nsamples = 714\nvalue = [694, 20]"] ;
298 -> 372 ;
373 [label="RevolvingUtilizationOfUnsecuredLines_scaled <= -0.0242\ngini = 0.5\nsamples = 2\nvalue = [1, 1]"] ;
372 -> 373 ;
374 [label="gini = 0.0\nsamples = 1\nvalue = [1, 0]"] ;
373 -> 374 ;
375 [label="gini = 0.0\nsamples = 1\nvalue = [0, 1]"] ;
373 -> 375 ;
376 [label="DebtRatio_scaled <= -0.1732\ngini = 0.0519\nsamples = 712\nvalue = [693, 19]"] ;
372 -> 376 ;
377 [label="RevolvingUtilizationOfUnsecuredLines_scaled <= -0.0242\ngini = 0.2449\nsamples = 14\nvalue = [12, 2]"] ;
376 -> 377 ;
378 [label="gini = 0.0\nsamples = 8\nvalue = [8, 0]"] ;
377 -> 378 ;
379 [label="RevolvingUtilizationOfUnsecuredLines_scaled <= -0.0242\ngini = 0.4444\nsamples = 6\nvalue = [4, 2]"] ;
377 -> 379 ;
380 [label="gini = 0.0\nsamples = 1\nvalue = [0, 1]"] ;
379 -> 380 ;
381 [label="MonthlyIncome_scaled <= -0.2074\ngini = 0.32\nsamples = 5\nvalue = [4, 1]"] ;
379 -> 381 ;
382 [label="gini = 0.0\nsamples = 3\nvalue = [3, 0]"] ;
381 -> 382 ;
383 [label="RevolvingUtilizationOfUnsecuredLines_scaled <= -0.0241\ngini = 0.5\nsamples = 2\nvalue = [1, 1]"] ;
381 -> 383 ;
384 [label="gini = 0.0\nsamples = 1\nvalue = [1, 0]"] ;
383 -> 384 ;
385 [label="gini = 0.0\nsamples = 1\nvalue = [0, 1]"] ;
383 -> 385 ;
386 [label="MonthlyIncome_scaled <= -0.2264\ngini = 0.0475\nsamples = 698\nvalue = [681, 17]"] ;
376 -> 386 ;
387 [label="MonthlyIncome_scaled <= -0.2307\ngini = 0.0615\nsamples = 472\nvalue = [457, 15]"] ;
386 -> 387 ;
388 [label="DebtRatio_scaled <= -0.1731\ngini = 0.0528\nsamples = 442\nvalue = [430, 12]"] ;
387 -> 388 ;
389 [label="RevolvingUtilizationOfUnsecuredLines_scaled <= -0.0241\ngini = 0.0128\nsamples = 155\nvalue = [154, 1]"] ;
388 -> 389 ;
390 [label="gini = 0.0\nsamples = 142\nvalue = [142, 0]"] ;
389 -> 390 ;
391 [label="RevolvingUtilizationOfUnsecuredLines_scaled <= -0.0241\ngini = 0.142\nsamples = 13\nvalue = [12, 1]"] ;
389 -> 391 ;
392 [label="gini = 0.0\nsamples = 1\nvalue = [0, 1]"] ;
391 -> 392 ;
393 [label="gini = 0.0\nsamples = 12\nvalue = [12, 0]"] ;
391 -> 393 ;
394 [label="DebtRatio_scaled <= -0.1731\ngini = 0.0737\nsamples = 287\nvalue = [276, 11]"] ;
388 -> 394 ;
395 [label="gini = 0.0\nsamples = 1\nvalue = [0, 1]"] ;
394 -> 395 ;
396 [label="MonthlyIncome_scaled <= -0.29\ngini = 0.0675\nsamples = 286\nvalue = [276, 10]"] ;
394 -> 396 ;
397 [label="gini = 0.0\nsamples = 69\nvalue = [69, 0]"] ;
396 -> 397 ;
398 [label="MonthlyIncome_scaled <= -0.2885\ngini = 0.0879\nsamples = 217\nvalue = [207, 10]"] ;
396 -> 398 ;
399 [label="gini = 0.0\nsamples = 2\nvalue = [0, 2]"] ;
398 -> 399 ;
400 [label="RevolvingUtilizationOfUnsecuredLines_scaled <= -0.0242\ngini = 0.0716\nsamples = 215\nvalue = [207, 8]"] ;
398 -> 400 ;
401 [label="RevolvingUtilizationOfUnsecuredLines_scaled <= -0.0242\ngini = 0.107\nsamples = 141\nvalue = [133, 8]"] ;
400 -> 401 ;
402 [label="MonthlyIncome_scaled <= -0.2655\ngini = 0.0768\nsamples = 125\nvalue = [120, 5]"] ;
401 -> 402 ;
403 [label="DebtRatio_scaled <= -0.1731\ngini = 0.1528\nsamples = 48\nvalue = [44, 4]"] ;
402 -> 403 ;
404 [label="RevolvingUtilizationOfUnsecuredLines_scaled <= -0.0242\ngini = 0.5\nsamples = 2\nvalue = [1, 1]"] ;
403 -> 404 ;
405 [label="gini = 0.0\nsamples = 1\nvalue = [0, 1]"] ;
404 -> 405 ;
406 [label="gini = 0.0\nsamples = 1\nvalue = [1, 0]"] ;
404 -> 406 ;
407 [label="MonthlyIncome_scaled <= -0.2669\ngini = 0.1219\nsamples = 46\nvalue = [43, 3]"] ;
403 -> 407 ;
408 [label="RevolvingUtilizationOfUnsecuredLines_scaled <= -0.0242\ngini = 0.0907\nsamples = 42\nvalue = [40, 2]"] ;
407 -> 408 ;
409 [label="RevolvingUtilizationOfUnsecuredLines_scaled <= -0.0242\ngini = 0.1372\nsamples = 27\nvalue = [25, 2]"] ;
408 -> 409 ;
410 [label="DebtRatio_scaled <= -0.173\ngini = 0.0768\nsamples = 25\nvalue = [24, 1]"] ;
409 -> 410 ;
411 [label="gini = 0.0\nsamples = 16\nvalue = [16, 0]"] ;
410 -> 411 ;
412 [label="DebtRatio_scaled <= -0.173\ngini = 0.1975\nsamples = 9\nvalue = [8, 1]"] ;
410 -> 412 ;
413 [label="gini = 0.0\nsamples = 1\nvalue = [0, 1]"] ;
412 -> 413 ;
414 [label="gini = 0.0\nsamples = 8\nvalue = [8, 0]"] ;
412 -> 414 ;
415 [label="MonthlyIncome_scaled <= -0.2853\ngini = 0.5\nsamples = 2\nvalue = [1, 1]"] ;
409 -> 415 ;
416 [label="gini = 0.0\nsamples = 1\nvalue = [1, 0]"] ;
415 -> 416 ;
417 [label="gini = 0.0\nsamples = 1\nvalue = [0, 1]"] ;
415 -> 417 ;
418 [label="gini = 0.0\nsamples = 15\nvalue = [15, 0]"] ;
408 -> 418 ;
419 [label="DebtRatio_scaled <= -0.1731\ngini = 0.375\nsamples = 4\nvalue = [3, 1]"] ;
407 -> 419 ;
420 [label="gini = 0.0\nsamples = 2\nvalue = [2, 0]"] ;
419 -> 420 ;
421 [label="DebtRatio_scaled <= -0.173\ngini = 0.5\nsamples = 2\nvalue = [1, 1]"] ;
419 -> 421 ;
422 [label="gini = 0.0\nsamples = 1\nvalue = [0, 1]"] ;
421 -> 422 ;
423 [label="gini = 0.0\nsamples = 1\nvalue = [1, 0]"] ;
421 -> 423 ;
424 [label="DebtRatio_scaled <= -0.1731\ngini = 0.0256\nsamples = 77\nvalue = [76, 1]"] ;
402 -> 424 ;
425 [label="gini = 0.0\nsamples = 55\nvalue = [55, 0]"] ;
424 -> 425 ;
426 [label="DebtRatio_scaled <= -0.1731\ngini = 0.0868\nsamples = 22\nvalue = [21, 1]"] ;
424 -> 426 ;
427 [label="gini = 0.0\nsamples = 1\nvalue = [0, 1]"] ;
426 -> 427 ;
428 [label="gini = 0.0\nsamples = 21\nvalue = [21, 0]"] ;
426 -> 428 ;
429 [label="RevolvingUtilizationOfUnsecuredLines_scaled <= -0.0242\ngini = 0.3047\nsamples = 16\nvalue = [13, 3]"] ;
401 -> 429 ;
430 [label="DebtRatio_scaled <= -0.1731\ngini = 0.4444\nsamples = 3\nvalue = [1, 2]"] ;
429 -> 430 ;
431 [label="gini = 0.0\nsamples = 1\nvalue = [1, 0]"] ;
430 -> 431 ;
432 [label="gini = 0.0\nsamples = 2\nvalue = [0, 2]"] ;
430 -> 432 ;
433 [label="MonthlyIncome_scaled <= -0.2509\ngini = 0.142\nsamples = 13\nvalue = [12, 1]"] ;
429 -> 433 ;
434 [label="gini = 0.0\nsamples = 11\nvalue = [11, 0]"] ;
433 -> 434 ;
435 [label="DebtRatio_scaled <= -0.1731\ngini = 0.5\nsamples = 2\nvalue = [1, 1]"] ;
433 -> 435 ;
436 [label="gini = 0.0\nsamples = 1\nvalue = [1, 0]"] ;
435 -> 436 ;
437 [label="gini = 0.0\nsamples = 1\nvalue = [0, 1]"] ;
435 -> 437 ;
438 [label="gini = 0.0\nsamples = 74\nvalue = [74, 0]"] ;
400 -> 438 ;
439 [label="DebtRatio_scaled <= -0.1731\ngini = 0.18\nsamples = 30\nvalue = [27, 3]"] ;
387 -> 439 ;
440 [label="DebtRatio_scaled <= -0.1731\ngini = 0.48\nsamples = 5\nvalue = [2, 3]"] ;
439 -> 440 ;
441 [label="DebtRatio_scaled <= -0.1731\ngini = 0.4444\nsamples = 3\nvalue = [2, 1]"] ;
440 -> 441 ;
442 [label="gini = 0.0\nsamples = 1\nvalue = [1, 0]"] ;
441 -> 442 ;
443 [label="MonthlyIncome_scaled <= -0.2287\ngini = 0.5\nsamples = 2\nvalue = [1, 1]"] ;
441 -> 443 ;
444 [label="gini = 0.0\nsamples = 1\nvalue = [1, 0]"] ;
443 -> 444 ;
445 [label="gini = 0.0\nsamples = 1\nvalue = [0, 1]"] ;
443 -> 445 ;
446 [label="gini = 0.0\nsamples = 2\nvalue = [0, 2]"] ;
440 -> 446 ;
447 [label="gini = 0.0\nsamples = 25\nvalue = [25, 0]"] ;
439 -> 447 ;
448 [label="DebtRatio_scaled <= -0.1731\ngini = 0.0175\nsamples = 226\nvalue = [224, 2]"] ;
386 -> 448 ;
449 [label="DebtRatio_scaled <= -0.1731\ngini = 0.0342\nsamples = 115\nvalue = [113, 2]"] ;
448 -> 449 ;
450 [label="RevolvingUtilizationOfUnsecuredLines_scaled <= -0.0242\ngini = 0.0175\nsamples = 113\nvalue = [112, 1]"] ;
449 -> 450 ;
451 [label="gini = 0.0\nsamples = 93\nvalue = [93, 0]"] ;
450 -> 451 ;
452 [label="RevolvingUtilizationOfUnsecuredLines_scaled <= -0.0242\ngini = 0.095\nsamples = 20\nvalue = [19, 1]"] ;
450 -> 452 ;
453 [label="gini = 0.0\nsamples = 1\nvalue = [0, 1]"] ;
452 -> 453 ;
454 [label="gini = 0.0\nsamples = 19\nvalue = [19, 0]"] ;
452 -> 454 ;
455 [label="MonthlyIncome_scaled <= -0.2112\ngini = 0.5\nsamples = 2\nvalue = [1, 1]"] ;
449 -> 455 ;
456 [label="gini = 0.0\nsamples = 1\nvalue = [0, 1]"] ;
455 -> 456 ;
457 [label="gini = 0.0\nsamples = 1\nvalue = [1, 0]"] ;
455 -> 457 ;
458 [label="gini = 0.0\nsamples = 111\nvalue = [111, 0]"] ;
448 -> 458 ;
459 [label="DebtRatio_scaled <= -0.1732\ngini = 0.1172\nsamples = 64\nvalue = [60, 4]"] ;
267 -> 459 ;
460 [label="gini = 0.0\nsamples = 1\nvalue = [0, 1]"] ;
459 -> 460 ;
461 [label="MonthlyIncome_scaled <= -0.3459\ngini = 0.0907\nsamples = 63\nvalue = [60, 3]"] ;
459 -> 461 ;
462 [label="MonthlyIncome_scaled <= -0.3548\ngini = 0.375\nsamples = 4\nvalue = [3, 1]"] ;
461 -> 462 ;
463 [label="gini = 0.0\nsamples = 3\nvalue = [3, 0]"] ;
462 -> 463 ;
464 [label="gini = 0.0\nsamples = 1\nvalue = [0, 1]"] ;
462 -> 464 ;
465 [label="RevolvingUtilizationOfUnsecuredLines_scaled <= -0.0241\ngini = 0.0655\nsamples = 59\nvalue = [57, 2]"] ;
461 -> 465 ;
466 [label="DebtRatio_scaled <= -0.1732\ngini = 0.2778\nsamples = 6\nvalue = [5, 1]"] ;
465 -> 466 ;
467 [label="gini = 0.0\nsamples = 1\nvalue = [0, 1]"] ;
466 -> 467 ;
468 [label="gini = 0.0\nsamples = 5\nvalue = [5, 0]"] ;
466 -> 468 ;
469 [label="RevolvingUtilizationOfUnsecuredLines_scaled <= -0.0241\ngini = 0.037\nsamples = 53\nvalue = [52, 1]"] ;
465 -> 469 ;
470 [label="gini = 0.0\nsamples = 35\nvalue = [35, 0]"] ;
469 -> 470 ;
471 [label="MonthlyIncome_scaled <= -0.2539\ngini = 0.1049\nsamples = 18\nvalue = [17, 1]"] ;
469 -> 471 ;
472 [label="gini = 0.0\nsamples = 11\nvalue = [11, 0]"] ;
471 -> 472 ;
473 [label="MonthlyIncome_scaled <= -0.2474\ngini = 0.2449\nsamples = 7\nvalue = [6, 1]"] ;
471 -> 473 ;
474 [label="gini = 0.0\nsamples = 1\nvalue = [0, 1]"] ;
473 -> 474 ;
475 [label="gini = 0.0\nsamples = 6\nvalue = [6, 0]"] ;
473 -> 475 ;
476 [label="MonthlyIncome_scaled <= -0.36\ngini = 0.024\nsamples = 1317\nvalue = [1301, 16]"] ;
266 -> 476 ;
477 [label="MonthlyIncome_scaled <= -0.3612\ngini = 0.1528\nsamples = 36\nvalue = [33, 3]"] ;
476 -> 477 ;
478 [label="DebtRatio_scaled <= -0.1731\ngini = 0.1078\nsamples = 35\nvalue = [33, 2]"] ;
477 -> 478 ;
479 [label="gini = 0.0\nsamples = 25\nvalue = [25, 0]"] ;
478 -> 479 ;
480 [label="DebtRatio_scaled <= -0.1731\ngini = 0.32\nsamples = 10\nvalue = [8, 2]"] ;
478 -> 480 ;
481 [label="gini = 0.0\nsamples = 1\nvalue = [0, 1]"] ;
480 -> 481 ;
482 [label="DebtRatio_scaled <= -0.1731\ngini = 0.1975\nsamples = 9\nvalue = [8, 1]"] ;
480 -> 482 ;
483 [label="DebtRatio_scaled <= -0.1731\ngini = 0.375\nsamples = 4\nvalue = [3, 1]"] ;
482 -> 483 ;
484 [label="gini = 0.0\nsamples = 3\nvalue = [3, 0]"] ;
483 -> 484 ;
485 [label="gini = 0.0\nsamples = 1\nvalue = [0, 1]"] ;
483 -> 485 ;
486 [label="gini = 0.0\nsamples = 5\nvalue = [5, 0]"] ;
482 -> 486 ;
487 [label="gini = 0.0\nsamples = 1\nvalue = [0, 1]"] ;
477 -> 487 ;
488 [label="RevolvingUtilizationOfUnsecuredLines_scaled <= -0.0241\ngini = 0.0201\nsamples = 1281\nvalue = [1268, 13]"] ;
476 -> 488 ;
489 [label="gini = 0.0\nsamples = 257\nvalue = [257, 0]"] ;
488 -> 489 ;
490 [label="RevolvingUtilizationOfUnsecuredLines_scaled <= -0.0241\ngini = 0.0251\nsamples = 1024\nvalue = [1011, 13]"] ;
488 -> 490 ;
491 [label="MonthlyIncome_scaled <= -0.2487\ngini = 0.5\nsamples = 2\nvalue = [1, 1]"] ;
490 -> 491 ;
492 [label="gini = 0.0\nsamples = 1\nvalue = [0, 1]"] ;
491 -> 492 ;
493 [label="gini = 0.0\nsamples = 1\nvalue = [1, 0]"] ;
491 -> 493 ;
494 [label="DebtRatio_scaled <= -0.1731\ngini = 0.0232\nsamples = 1022\nvalue = [1010, 12]"] ;
490 -> 494 ;
495 [label="DebtRatio_scaled <= -0.1732\ngini = 0.0182\nsamples = 871\nvalue = [863, 8]"] ;
494 -> 495 ;
496 [label="DebtRatio_scaled <= -0.1732\ngini = 0.0302\nsamples = 457\nvalue = [450, 7]"] ;
495 -> 496 ;
497 [label="RevolvingUtilizationOfUnsecuredLines_scaled <= -0.0241\ngini = 0.026\nsamples = 455\nvalue = [449, 6]"] ;
496 -> 497 ;
498 [label="RevolvingUtilizationOfUnsecuredLines_scaled <= -0.0241\ngini = 0.0582\nsamples = 100\nvalue = [97, 3]"] ;
497 -> 498 ;
499 [label="DebtRatio_scaled <= -0.1732\ngini = 0.0396\nsamples = 99\nvalue = [97, 2]"] ;
498 -> 499 ;
500 [label="DebtRatio_scaled <= -0.1732\ngini = 0.0832\nsamples = 46\nvalue = [44, 2]"] ;
499 -> 500 ;
501 [label="MonthlyIncome_scaled <= -0.2113\ngini = 0.0454\nsamples = 43\nvalue = [42, 1]"] ;
500 -> 501 ;
502 [label="gini = 0.0\nsamples = 33\nvalue = [33, 0]"] ;
501 -> 502 ;
503 [label="RevolvingUtilizationOfUnsecuredLines_scaled <= -0.0241\ngini = 0.18\nsamples = 10\nvalue = [9, 1]"] ;
501 -> 503 ;
504 [label="gini = 0.0\nsamples = 6\nvalue = [6, 0]"] ;
503 -> 504 ;
505 [label="RevolvingUtilizationOfUnsecuredLines_scaled <= -0.0241\ngini = 0.375\nsamples = 4\nvalue = [3, 1]"] ;
503 -> 505 ;
506 [label="gini = 0.0\nsamples = 1\nvalue = [0, 1]"] ;
505 -> 506 ;
507 [label="gini = 0.0\nsamples = 3\nvalue = [3, 0]"] ;
505 -> 507 ;
508 [label="RevolvingUtilizationOfUnsecuredLines_scaled <= -0.0241\ngini = 0.4444\nsamples = 3\nvalue = [2, 1]"] ;
500 -> 508 ;
509 [label="gini = 0.0\nsamples = 1\nvalue = [0, 1]"] ;
508 -> 509 ;
510 [label="gini = 0.0\nsamples = 2\nvalue = [2, 0]"] ;
508 -> 510 ;
511 [label="gini = 0.0\nsamples = 53\nvalue = [53, 0]"] ;
499 -> 511 ;
512 [label="gini = 0.0\nsamples = 1\nvalue = [0, 1]"] ;
498 -> 512 ;
513 [label="RevolvingUtilizationOfUnsecuredLines_scaled <= -0.024\ngini = 0.0168\nsamples = 355\nvalue = [352, 3]"] ;
497 -> 513 ;
514 [label="gini = 0.0\nsamples = 250\nvalue = [250, 0]"] ;
513 -> 514 ;
515 [label="RevolvingUtilizationOfUnsecuredLines_scaled <= -0.024\ngini = 0.0555\nsamples = 105\nvalue = [102, 3]"] ;
513 -> 515 ;
516 [label="DebtRatio_scaled <= -0.1732\ngini = 0.5\nsamples = 2\nvalue = [1, 1]"] ;
515 -> 516 ;
517 [label="gini = 0.0\nsamples = 1\nvalue = [0, 1]"] ;
516 -> 517 ;
518 [label="gini = 0.0\nsamples = 1\nvalue = [1, 0]"] ;
516 -> 518 ;
519 [label="DebtRatio_scaled <= -0.1732\ngini = 0.0381\nsamples = 103\nvalue = [101, 2]"] ;
515 -> 519 ;
520 [label="gini = 0.0\nsamples = 84\nvalue = [84, 0]"] ;
519 -> 520 ;
521 [label="RevolvingUtilizationOfUnsecuredLines_scaled <= -0.024\ngini = 0.1884\nsamples = 19\nvalue = [17, 2]"] ;
519 -> 521 ;
522 [label="gini = 0.0\nsamples = 1\nvalue = [0, 1]"] ;
521 -> 522 ;
523 [label="MonthlyIncome_scaled <= -0.2794\ngini = 0.1049\nsamples = 18\nvalue = [17, 1]"] ;
521 -> 523 ;
524 [label="RevolvingUtilizationOfUnsecuredLines_scaled <= -0.024\ngini = 0.2778\nsamples = 6\nvalue = [5, 1]"] ;
523 -> 524 ;
525 [label="gini = 0.0\nsamples = 5\nvalue = [5, 0]"] ;
524 -> 525 ;
526 [label="gini = 0.0\nsamples = 1\nvalue = [0, 1]"] ;
524 -> 526 ;
527 [label="gini = 0.0\nsamples = 12\nvalue = [12, 0]"] ;
523 -> 527 ;
528 [label="RevolvingUtilizationOfUnsecuredLines_scaled <= -0.0241\ngini = 0.5\nsamples = 2\nvalue = [1, 1]"] ;
496 -> 528 ;
529 [label="gini = 0.0\nsamples = 1\nvalue = [1, 0]"] ;
528 -> 529 ;
530 [label="gini = 0.0\nsamples = 1\nvalue = [0, 1]"] ;
528 -> 530 ;
531 [label="DebtRatio_scaled <= -0.1731\ngini = 0.0048\nsamples = 414\nvalue = [413, 1]"] ;
495 -> 531 ;
532 [label="DebtRatio_scaled <= -0.1731\ngini = 0.0144\nsamples = 138\nvalue = [137, 1]"] ;
531 -> 532 ;
533 [label="gini = 0.0\nsamples = 137\nvalue = [137, 0]"] ;
532 -> 533 ;
534 [label="gini = 0.0\nsamples = 1\nvalue = [0, 1]"] ;
532 -> 534 ;
535 [label="gini = 0.0\nsamples = 276\nvalue = [276, 0]"] ;
531 -> 535 ;
536 [label="DebtRatio_scaled <= -0.1731\ngini = 0.0516\nsamples = 151\nvalue = [147, 4]"] ;
494 -> 536 ;
537 [label="gini = 0.0\nsamples = 1\nvalue = [0, 1]"] ;
536 -> 537 ;
538 [label="MonthlyIncome_scaled <= -0.3393\ngini = 0.0392\nsamples = 150\nvalue = [147, 3]"] ;
536 -> 538 ;
539 [label="MonthlyIncome_scaled <= -0.3403\ngini = 0.2188\nsamples = 8\nvalue = [7, 1]"] ;
538 -> 539 ;
540 [label="gini = 0.0\nsamples = 6\nvalue = [6, 0]"] ;
539 -> 540 ;
541 [label="DebtRatio_scaled <= -0.1731\ngini = 0.5\nsamples = 2\nvalue = [1, 1]"] ;
539 -> 541 ;
542 [label="gini = 0.0\nsamples = 1\nvalue = [1, 0]"] ;
541 -> 542 ;
543 [label="gini = 0.0\nsamples = 1\nvalue = [0, 1]"] ;
541 -> 543 ;
544 [label="MonthlyIncome_scaled <= -0.2068\ngini = 0.0278\nsamples = 142\nvalue = [140, 2]"] ;
538 -> 544 ;
545 [label="DebtRatio_scaled <= -0.173\ngini = 0.0148\nsamples = 134\nvalue = [133, 1]"] ;
544 -> 545 ;
546 [label="gini = 0.0\nsamples = 103\nvalue = [103, 0]"] ;
545 -> 546 ;
547 [label="DebtRatio_scaled <= -0.173\ngini = 0.0624\nsamples = 31\nvalue = [30, 1]"] ;
545 -> 547 ;
548 [label="gini = 0.0\nsamples = 1\nvalue = [0, 1]"] ;
547 -> 548 ;
549 [label="gini = 0.0\nsamples = 30\nvalue = [30, 0]"] ;
547 -> 549 ;
550 [label="DebtRatio_scaled <= -0.1731\ngini = 0.2188\nsamples = 8\nvalue = [7, 1]"] ;
544 -> 550 ;
551 [label="gini = 0.0\nsamples = 1\nvalue = [0, 1]"] ;
550 -> 551 ;
552 [label="gini = 0.0\nsamples = 7\nvalue = [7, 0]"] ;
550 -> 552 ;
553 [label="DebtRatio_scaled <= -0.1732\ngini = 0.0959\nsamples = 99\nvalue = [94, 5]"] ;
265 -> 553 ;
554 [label="gini = 0.0\nsamples = 1\nvalue = [0, 1]"] ;
553 -> 554 ;
555 [label="DebtRatio_scaled <= -0.1731\ngini = 0.0783\nsamples = 98\nvalue = [94, 4]"] ;
553 -> 555 ;
556 [label="gini = 0.0\nsamples = 63\nvalue = [63, 0]"] ;
555 -> 556 ;
557 [label="DebtRatio_scaled <= -0.1731\ngini = 0.2024\nsamples = 35\nvalue = [31, 4]"] ;
555 -> 557 ;
558 [label="MonthlyIncome_scaled <= -0.2683\ngini = 0.4444\nsamples = 3\nvalue = [1, 2]"] ;
557 -> 558 ;
559 [label="gini = 0.0\nsamples = 2\nvalue = [0, 2]"] ;
558 -> 559 ;
560 [label="gini = 0.0\nsamples = 1\nvalue = [1, 0]"] ;
558 -> 560 ;
561 [label="DebtRatio_scaled <= -0.1731\ngini = 0.1172\nsamples = 32\nvalue = [30, 2]"] ;
557 -> 561 ;
562 [label="DebtRatio_scaled <= -0.1731\ngini = 0.3457\nsamples = 9\nvalue = [7, 2]"] ;
561 -> 562 ;
563 [label="DebtRatio_scaled <= -0.1731\ngini = 0.2188\nsamples = 8\nvalue = [7, 1]"] ;
562 -> 563 ;
564 [label="gini = 0.0\nsamples = 5\nvalue = [5, 0]"] ;
563 -> 564 ;
565 [label="DebtRatio_scaled <= -0.1731\ngini = 0.4444\nsamples = 3\nvalue = [2, 1]"] ;
563 -> 565 ;
566 [label="gini = 0.0\nsamples = 1\nvalue = [0, 1]"] ;
565 -> 566 ;
567 [label="gini = 0.0\nsamples = 2\nvalue = [2, 0]"] ;
565 -> 567 ;
568 [label="gini = 0.0\nsamples = 1\nvalue = [0, 1]"] ;
562 -> 568 ;
569 [label="gini = 0.0\nsamples = 23\nvalue = [23, 0]"] ;
561 -> 569 ;
570 [label="RevolvingUtilizationOfUnsecuredLines_scaled <= -0.024\ngini = 0.0126\nsamples = 475\nvalue = [472, 3]"] ;
264 -> 570 ;
571 [label="RevolvingUtilizationOfUnsecuredLines_scaled <= -0.024\ngini = 0.0205\nsamples = 290\nvalue = [287, 3]"] ;
570 -> 571 ;
572 [label="RevolvingUtilizationOfUnsecuredLines_scaled <= -0.024\ngini = 0.0138\nsamples = 287\nvalue = [285, 2]"] ;
571 -> 572 ;
573 [label="gini = 0.0\nsamples = 175\nvalue = [175, 0]"] ;
572 -> 573 ;
574 [label="RevolvingUtilizationOfUnsecuredLines_scaled <= -0.024\ngini = 0.0351\nsamples = 112\nvalue = [110, 2]"] ;
572 -> 574 ;
575 [label="MonthlyIncome_scaled <= -0.2209\ngini = 0.2188\nsamples = 8\nvalue = [7, 1]"] ;
574 -> 575 ;
576 [label="gini = 0.0\nsamples = 6\nvalue = [6, 0]"] ;
575 -> 576 ;
577 [label="DebtRatio_scaled <= -0.1732\ngini = 0.5\nsamples = 2\nvalue = [1, 1]"] ;
575 -> 577 ;
578 [label="gini = 0.0\nsamples = 1\nvalue = [1, 0]"] ;
577 -> 578 ;
579 [label="gini = 0.0\nsamples = 1\nvalue = [0, 1]"] ;
577 -> 579 ;
580 [label="DebtRatio_scaled <= -0.1731\ngini = 0.019\nsamples = 104\nvalue = [103, 1]"] ;
574 -> 580 ;
581 [label="gini = 0.0\nsamples = 70\nvalue = [70, 0]"] ;
580 -> 581 ;
582 [label="DebtRatio_scaled <= -0.1731\ngini = 0.0571\nsamples = 34\nvalue = [33, 1]"] ;
580 -> 582 ;
583 [label="RevolvingUtilizationOfUnsecuredLines_scaled <= -0.024\ngini = 0.5\nsamples = 2\nvalue = [1, 1]"] ;
582 -> 583 ;
584 [label="gini = 0.0\nsamples = 1\nvalue = [0, 1]"] ;
583 -> 584 ;
585 [label="gini = 0.0\nsamples = 1\nvalue = [1, 0]"] ;
583 -> 585 ;
586 [label="gini = 0.0\nsamples = 32\nvalue = [32, 0]"] ;
582 -> 586 ;
587 [label="MonthlyIncome_scaled <= -0.2694\ngini = 0.4444\nsamples = 3\nvalue = [2, 1]"] ;
571 -> 587 ;
588 [label="gini = 0.0\nsamples = 1\nvalue = [0, 1]"] ;
587 -> 588 ;
589 [label="gini = 0.0\nsamples = 2\nvalue = [2, 0]"] ;
587 -> 589 ;
590 [label="gini = 0.0\nsamples = 185\nvalue = [185, 0]"] ;
570 -> 590 ;
591 [label="RevolvingUtilizationOfUnsecuredLines_scaled <= -0.0239\ngini = 0.0568\nsamples = 1470\nvalue = [1427, 43]"] ;
247 -> 591 ;
592 [label="MonthlyIncome_scaled <= -0.4299\ngini = 0.2975\nsamples = 22\nvalue = [18, 4]"] ;
591 -> 592 ;
593 [label="RevolvingUtilizationOfUnsecuredLines_scaled <= -0.0239\ngini = 0.5\nsamples = 2\nvalue = [1, 1]"] ;
592 -> 593 ;
594 [label="gini = 0.0\nsamples = 1\nvalue = [1, 0]"] ;
593 -> 594 ;
595 [label="gini = 0.0\nsamples = 1\nvalue = [0, 1]"] ;
593 -> 595 ;
596 [label="DebtRatio_scaled <= -0.1731\ngini = 0.255\nsamples = 20\nvalue = [17, 3]"] ;
592 -> 596 ;
597 [label="RevolvingUtilizationOfUnsecuredLines_scaled <= -0.0239\ngini = 0.1327\nsamples = 14\nvalue = [13, 1]"] ;
596 -> 597 ;
598 [label="gini = 0.0\nsamples = 10\nvalue = [10, 0]"] ;
597 -> 598 ;
599 [label="MonthlyIncome_scaled <= -0.3096\ngini = 0.375\nsamples = 4\nvalue = [3, 1]"] ;
597 -> 599 ;
600 [label="DebtRatio_scaled <= -0.1732\ngini = 0.5\nsamples = 2\nvalue = [1, 1]"] ;
599 -> 600 ;
601 [label="gini = 0.0\nsamples = 1\nvalue = [0, 1]"] ;
600 -> 601 ;
602 [label="gini = 0.0\nsamples = 1\nvalue = [1, 0]"] ;
600 -> 602 ;
603 [label="gini = 0.0\nsamples = 2\nvalue = [2, 0]"] ;
599 -> 603 ;
604 [label="DebtRatio_scaled <= -0.173\ngini = 0.4444\nsamples = 6\nvalue = [4, 2]"] ;
596 -> 604 ;
605 [label="DebtRatio_scaled <= -0.1731\ngini = 0.4444\nsamples = 3\nvalue = [1, 2]"] ;
604 -> 605 ;
606 [label="gini = 0.0\nsamples = 1\nvalue = [0, 1]"] ;
605 -> 606 ;
607 [label="DebtRatio_scaled <= -0.173\ngini = 0.5\nsamples = 2\nvalue = [1, 1]"] ;
605 -> 607 ;
608 [label="gini = 0.0\nsamples = 1\nvalue = [1, 0]"] ;
607 -> 608 ;
609 [label="gini = 0.0\nsamples = 1\nvalue = [0, 1]"] ;
607 -> 609 ;
610 [label="gini = 0.0\nsamples = 3\nvalue = [3, 0]"] ;
604 -> 610 ;
611 [label="MonthlyIncome_scaled <= -0.2025\ngini = 0.0524\nsamples = 1448\nvalue = [1409, 39]"] ;
591 -> 611 ;
612 [label="DebtRatio_scaled <= -0.1731\ngini = 0.0472\nsamples = 1405\nvalue = [1371, 34]"] ;
611 -> 612 ;
613 [label="DebtRatio_scaled <= -0.1732\ngini = 0.0292\nsamples = 810\nvalue = [798, 12]"] ;
612 -> 613 ;
614 [label="MonthlyIncome_scaled <= -0.481\ngini = 0.1975\nsamples = 18\nvalue = [16, 2]"] ;
613 -> 614 ;
615 [label="gini = 0.0\nsamples = 1\nvalue = [0, 1]"] ;
614 -> 615 ;
616 [label="MonthlyIncome_scaled <= -0.4084\ngini = 0.1107\nsamples = 17\nvalue = [16, 1]"] ;
614 -> 616 ;
617 [label="DebtRatio_scaled <= -0.1732\ngini = 0.375\nsamples = 4\nvalue = [3, 1]"] ;
616 -> 617 ;
618 [label="gini = 0.0\nsamples = 1\nvalue = [0, 1]"] ;
617 -> 618 ;
619 [label="gini = 0.0\nsamples = 3\nvalue = [3, 0]"] ;
617 -> 619 ;
620 [label="gini = 0.0\nsamples = 13\nvalue = [13, 0]"] ;
616 -> 620 ;
621 [label="RevolvingUtilizationOfUnsecuredLines_scaled <= -0.0238\ngini = 0.0249\nsamples = 792\nvalue = [782, 10]"] ;
613 -> 621 ;
622 [label="DebtRatio_scaled <= -0.1732\ngini = 0.0102\nsamples = 392\nvalue = [390, 2]"] ;
621 -> 622 ;
623 [label="DebtRatio_scaled <= -0.1732\ngini = 0.0476\nsamples = 41\nvalue = [40, 1]"] ;
622 -> 623 ;
624 [label="gini = 0.0\nsamples = 37\nvalue = [37, 0]"] ;
623 -> 624 ;
625 [label="RevolvingUtilizationOfUnsecuredLines_scaled <= -0.0239\ngini = 0.375\nsamples = 4\nvalue = [3, 1]"] ;
623 -> 625 ;
626 [label="MonthlyIncome_scaled <= -0.3464\ngini = 0.5\nsamples = 2\nvalue = [1, 1]"] ;
625 -> 626 ;
627 [label="gini = 0.0\nsamples = 1\nvalue = [0, 1]"] ;
626 -> 627 ;
628 [label="gini = 0.0\nsamples = 1\nvalue = [1, 0]"] ;
626 -> 628 ;
629 [label="gini = 0.0\nsamples = 2\nvalue = [2, 0]"] ;
625 -> 629 ;
630 [label="DebtRatio_scaled <= -0.1731\ngini = 0.0057\nsamples = 351\nvalue = [350, 1]"] ;
622 -> 630 ;
631 [label="gini = 0.0\nsamples = 298\nvalue = [298, 0]"] ;
630 -> 631 ;
632 [label="DebtRatio_scaled <= -0.1731\ngini = 0.037\nsamples = 53\nvalue = [52, 1]"] ;
630 -> 632 ;
633 [label="gini = 0.0\nsamples = 1\nvalue = [0, 1]"] ;
632 -> 633 ;
634 [label="gini = 0.0\nsamples = 52\nvalue = [52, 0]"] ;
632 -> 634 ;
635 [label="RevolvingUtilizationOfUnsecuredLines_scaled <= -0.0238\ngini = 0.0392\nsamples = 400\nvalue = [392, 8]"] ;
621 -> 635 ;
636 [label="gini = 0.0\nsamples = 1\nvalue = [0, 1]"] ;
635 -> 636 ;
637 [label="DebtRatio_scaled <= -0.1732\ngini = 0.0345\nsamples = 399\nvalue = [392, 7]"] ;
635 -> 637 ;
638 [label="gini = 0.0\nsamples = 159\nvalue = [159, 0]"] ;
637 -> 638 ;
639 [label="DebtRatio_scaled <= -0.1732\ngini = 0.0566\nsamples = 240\nvalue = [233, 7]"] ;
637 -> 639 ;
640 [label="MonthlyIncome_scaled <= -0.4224\ngini = 0.4444\nsamples = 3\nvalue = [1, 2]"] ;
639 -> 640 ;
641 [label="gini = 0.0\nsamples = 1\nvalue = [1, 0]"] ;
640 -> 641 ;
642 [label="gini = 0.0\nsamples = 2\nvalue = [0, 2]"] ;
640 -> 642 ;
643 [label="DebtRatio_scaled <= -0.1732\ngini = 0.0413\nsamples = 237\nvalue = [232, 5]"] ;
639 -> 643 ;
644 [label="DebtRatio_scaled <= -0.1732\ngini = 0.0907\nsamples = 84\nvalue = [80, 4]"] ;
643 -> 644 ;
645 [label="RevolvingUtilizationOfUnsecuredLines_scaled <= -0.0238\ngini = 0.0697\nsamples = 83\nvalue = [80, 3]"] ;
644 -> 645 ;
646 [label="gini = 0.0\nsamples = 48\nvalue = [48, 0]"] ;
645 -> 646 ;
647 [label="RevolvingUtilizationOfUnsecuredLines_scaled <= -0.0238\ngini = 0.1567\nsamples = 35\nvalue = [32, 3]"] ;
645 -> 647 ;
648 [label="gini = 0.0\nsamples = 1\nvalue = [0, 1]"] ;
647 -> 648 ;
649 [label="DebtRatio_scaled <= -0.1732\ngini = 0.1107\nsamples = 34\nvalue = [32, 2]"] ;
647 -> 649 ;
650 [label="gini = 0.0\nsamples = 20\nvalue = [20, 0]"] ;
649 -> 650 ;
651 [label="DebtRatio_scaled <= -0.1732\ngini = 0.2449\nsamples = 14\nvalue = [12, 2]"] ;
649 -> 651 ;
652 [label="MonthlyIncome_scaled <= -0.3898\ngini = 0.5\nsamples = 2\nvalue = [1, 1]"] ;
651 -> 652 ;
653 [label="gini = 0.0\nsamples = 1\nvalue = [0, 1]"] ;
652 -> 653 ;
654 [label="gini = 0.0\nsamples = 1\nvalue = [1, 0]"] ;
652 -> 654 ;
655 [label="RevolvingUtilizationOfUnsecuredLines_scaled <= -0.0237\ngini = 0.1528\nsamples = 12\nvalue = [11, 1]"] ;
651 -> 655 ;
656 [label="RevolvingUtilizationOfUnsecuredLines_scaled <= -0.0237\ngini = 0.32\nsamples = 5\nvalue = [4, 1]"] ;
655 -> 656 ;
657 [label="gini = 0.0\nsamples = 4\nvalue = [4, 0]"] ;
656 -> 657 ;
658 [label="gini = 0.0\nsamples = 1\nvalue = [0, 1]"] ;
656 -> 658 ;
659 [label="gini = 0.0\nsamples = 7\nvalue = [7, 0]"] ;
655 -> 659 ;
660 [label="gini = 0.0\nsamples = 1\nvalue = [0, 1]"] ;
644 -> 660 ;
661 [label="RevolvingUtilizationOfUnsecuredLines_scaled <= -0.0237\ngini = 0.013\nsamples = 153\nvalue = [152, 1]"] ;
643 -> 661 ;
662 [label="gini = 0.0\nsamples = 128\nvalue = [128, 0]"] ;
661 -> 662 ;
663 [label="RevolvingUtilizationOfUnsecuredLines_scaled <= -0.0237\ngini = 0.0768\nsamples = 25\nvalue = [24, 1]"] ;
661 -> 663 ;
664 [label="gini = 0.0\nsamples = 1\nvalue = [0, 1]"] ;
663 -> 664 ;
665 [label="gini = 0.0\nsamples = 24\nvalue = [24, 0]"] ;
663 -> 665 ;
666 [label="DebtRatio_scaled <= -0.1731\ngini = 0.0712\nsamples = 595\nvalue = [573, 22]"] ;
612 -> 666 ;
667 [label="RevolvingUtilizationOfUnsecuredLines_scaled <= -0.0238\ngini = 0.5\nsamples = 2\nvalue = [1, 1]"] ;
666 -> 667 ;
668 [label="gini = 0.0\nsamples = 1\nvalue = [1, 0]"] ;
667 -> 668 ;
669 [label="gini = 0.0\nsamples = 1\nvalue = [0, 1]"] ;
667 -> 669 ;
670 [label="RevolvingUtilizationOfUnsecuredLines_scaled <= -0.0239\ngini = 0.0683\nsamples = 593\nvalue = [572, 21]"] ;
666 -> 670 ;
671 [label="RevolvingUtilizationOfUnsecuredLines_scaled <= -0.0239\ngini = 0.1699\nsamples = 64\nvalue = [58, 6]"] ;
670 -> 671 ;
672 [label="MonthlyIncome_scaled <= -0.3141\ngini = 0.1461\nsamples = 63\nvalue = [58, 5]"] ;
671 -> 672 ;
673 [label="MonthlyIncome_scaled <= -0.3185\ngini = 0.3107\nsamples = 26\nvalue = [21, 5]"] ;
672 -> 673 ;
674 [label="RevolvingUtilizationOfUnsecuredLines_scaled <= -0.0239\ngini = 0.2188\nsamples = 24\nvalue = [21, 3]"] ;
673 -> 674 ;
675 [label="DebtRatio_scaled <= -0.1731\ngini = 0.1653\nsamples = 22\nvalue = [20, 2]"] ;
674 -> 675 ;
676 [label="gini = 0.0\nsamples = 10\nvalue = [10, 0]"] ;
675 -> 676 ;
677 [label="DebtRatio_scaled <= -0.1731\ngini = 0.2778\nsamples = 12\nvalue = [10, 2]"] ;
675 -> 677 ;
678 [label="gini = 0.0\nsamples = 1\nvalue = [0, 1]"] ;
677 -> 678 ;
679 [label="DebtRatio_scaled <= -0.1731\ngini = 0.1653\nsamples = 11\nvalue = [10, 1]"] ;
677 -> 679 ;
680 [label="DebtRatio_scaled <= -0.1731\ngini = 0.32\nsamples = 5\nvalue = [4, 1]"] ;
679 -> 680 ;
681 [label="gini = 0.0\nsamples = 4\nvalue = [4, 0]"] ;
680 -> 681 ;
682 [label="gini = 0.0\nsamples = 1\nvalue = [0, 1]"] ;
680 -> 682 ;
683 [label="gini = 0.0\nsamples = 6\nvalue = [6, 0]"] ;
679 -> 683 ;
684 [label="DebtRatio_scaled <= -0.173\ngini = 0.5\nsamples = 2\nvalue = [1, 1]"] ;
674 -> 684 ;
685 [label="gini = 0.0\nsamples = 1\nvalue = [0, 1]"] ;
684 -> 685 ;
686 [label="gini = 0.0\nsamples = 1\nvalue = [1, 0]"] ;
684 -> 686 ;
687 [label="gini = 0.0\nsamples = 2\nvalue = [0, 2]"] ;
673 -> 687 ;
688 [label="gini = 0.0\nsamples = 37\nvalue = [37, 0]"] ;
672 -> 688 ;
689 [label="gini = 0.0\nsamples = 1\nvalue = [0, 1]"] ;
671 -> 689 ;
690 [label="DebtRatio_scaled <= -0.1731\ngini = 0.0551\nsamples = 529\nvalue = [514, 15]"] ;
670 -> 690 ;
691 [label="MonthlyIncome_scaled <= -0.2228\ngini = 0.2449\nsamples = 14\nvalue = [12, 2]"] ;
690 -> 691 ;
692 [label="MonthlyIncome_scaled <= -0.3367\ngini = 0.1528\nsamples = 12\nvalue = [11, 1]"] ;
691 -> 692 ;
693 [label="MonthlyIncome_scaled <= -0.3538\ngini = 0.375\nsamples = 4\nvalue = [3, 1]"] ;
692 -> 693 ;
694 [label="gini = 0.0\nsamples = 3\nvalue = [3, 0]"] ;
693 -> 694 ;
695 [label="gini = 0.0\nsamples = 1\nvalue = [0, 1]"] ;
693 -> 695 ;
696 [label="gini = 0.0\nsamples = 8\nvalue = [8, 0]"] ;
692 -> 696 ;
697 [label="RevolvingUtilizationOfUnsecuredLines_scaled <= -0.0237\ngini = 0.5\nsamples = 2\nvalue = [1, 1]"] ;
691 -> 697 ;
698 [label="gini = 0.0\nsamples = 1\nvalue = [0, 1]"] ;
697 -> 698 ;
699 [label="gini = 0.0\nsamples = 1\nvalue = [1, 0]"] ;
697 -> 699 ;
700 [label="DebtRatio_scaled <= -0.173\ngini = 0.0492\nsamples = 515\nvalue = [502, 13]"] ;
690 -> 700 ;
701 [label="MonthlyIncome_scaled <= -0.3131\ngini = 0.0461\nsamples = 508\nvalue = [496, 12]"] ;
700 -> 701 ;
702 [label="DebtRatio_scaled <= -0.173\ngini = 0.0105\nsamples = 189\nvalue = [188, 1]"] ;
701 -> 702 ;
703 [label="gini = 0.0\nsamples = 172\nvalue = [172, 0]"] ;
702 -> 703 ;
704 [label="DebtRatio_scaled <= -0.173\ngini = 0.1107\nsamples = 17\nvalue = [16, 1]"] ;
702 -> 704 ;
705 [label="gini = 0.0\nsamples = 1\nvalue = [0, 1]"] ;
704 -> 705 ;
706 [label="gini = 0.0\nsamples = 16\nvalue = [16, 0]"] ;
704 -> 706 ;
707 [label="MonthlyIncome_scaled <= -0.3124\ngini = 0.0666\nsamples = 319\nvalue = [308, 11]"] ;
701 -> 707 ;
708 [label="gini = 0.0\nsamples = 1\nvalue = [0, 1]"] ;
707 -> 708 ;
709 [label="DebtRatio_scaled <= -0.1731\ngini = 0.0609\nsamples = 318\nvalue = [308, 10]"] ;
707 -> 709 ;
710 [label="DebtRatio_scaled <= -0.1731\ngini = 0.1232\nsamples = 91\nvalue = [85, 6]"] ;
709 -> 710 ;
711 [label="RevolvingUtilizationOfUnsecuredLines_scaled <= -0.0239\ngini = 0.1049\nsamples = 90\nvalue = [85, 5]"] ;
710 -> 711 ;
712 [label="RevolvingUtilizationOfUnsecuredLines_scaled <= -0.0239\ngini = 0.2355\nsamples = 22\nvalue = [19, 3]"] ;
711 -> 712 ;
713 [label="RevolvingUtilizationOfUnsecuredLines_scaled <= -0.0239\ngini = 0.1723\nsamples = 21\nvalue = [19, 2]"] ;
712 -> 713 ;
714 [label="gini = 0.0\nsamples = 12\nvalue = [12, 0]"] ;
713 -> 714 ;
715 [label="RevolvingUtilizationOfUnsecuredLines_scaled <= -0.0239\ngini = 0.3457\nsamples = 9\nvalue = [7, 2]"] ;
713 -> 715 ;
716 [label="gini = 0.0\nsamples = 1\nvalue = [0, 1]"] ;
715 -> 716 ;
717 [label="MonthlyIncome_scaled <= -0.2171\ngini = 0.2188\nsamples = 8\nvalue = [7, 1]"] ;
715 -> 717 ;
718 [label="gini = 0.0\nsamples = 6\nvalue = [6, 0]"] ;
717 -> 718 ;
719 [label="DebtRatio_scaled <= -0.1731\ngini = 0.5\nsamples = 2\nvalue = [1, 1]"] ;
717 -> 719 ;
720 [label="gini = 0.0\nsamples = 1\nvalue = [0, 1]"] ;
719 -> 720 ;
721 [label="gini = 0.0\nsamples = 1\nvalue = [1, 0]"] ;
719 -> 721 ;
722 [label="gini = 0.0\nsamples = 1\nvalue = [0, 1]"] ;
712 -> 722 ;
723 [label="RevolvingUtilizationOfUnsecuredLines_scaled <= -0.0238\ngini = 0.0571\nsamples = 68\nvalue = [66, 2]"] ;
711 -> 723 ;
724 [label="gini = 0.0\nsamples = 32\nvalue = [32, 0]"] ;
723 -> 724 ;
725 [label="RevolvingUtilizationOfUnsecuredLines_scaled <= -0.0238\ngini = 0.1049\nsamples = 36\nvalue = [34, 2]"] ;
723 -> 725 ;
726 [label="gini = 0.0\nsamples = 1\nvalue = [0, 1]"] ;
725 -> 726 ;
727 [label="DebtRatio_scaled <= -0.1731\ngini = 0.0555\nsamples = 35\nvalue = [34, 1]"] ;
725 -> 727 ;
728 [label="gini = 0.0\nsamples = 29\nvalue = [29, 0]"] ;
727 -> 728 ;
729 [label="DebtRatio_scaled <= -0.1731\ngini = 0.2778\nsamples = 6\nvalue = [5, 1]"] ;
727 -> 729 ;
730 [label="gini = 0.0\nsamples = 1\nvalue = [0, 1]"] ;
729 -> 730 ;
731 [label="gini = 0.0\nsamples = 5\nvalue = [5, 0]"] ;
729 -> 731 ;
732 [label="gini = 0.0\nsamples = 1\nvalue = [0, 1]"] ;
710 -> 732 ;
733 [label="MonthlyIncome_scaled <= -0.3063\ngini = 0.0346\nsamples = 227\nvalue = [223, 4]"] ;
709 -> 733 ;
734 [label="RevolvingUtilizationOfUnsecuredLines_scaled <= -0.0237\ngini = 0.1975\nsamples = 9\nvalue = [8, 1]"] ;
733 -> 734 ;
735 [label="gini = 0.0\nsamples = 7\nvalue = [7, 0]"] ;
734 -> 735 ;
736 [label="DebtRatio_scaled <= -0.173\ngini = 0.5\nsamples = 2\nvalue = [1, 1]"] ;
734 -> 736 ;
737 [label="gini = 0.0\nsamples = 1\nvalue = [0, 1]"] ;
736 -> 737 ;
738 [label="gini = 0.0\nsamples = 1\nvalue = [1, 0]"] ;
736 -> 738 ;
739 [label="DebtRatio_scaled <= -0.1731\ngini = 0.0271\nsamples = 218\nvalue = [215, 3]"] ;
733 -> 739 ;
740 [label="DebtRatio_scaled <= -0.1731\ngini = 0.0599\nsamples = 97\nvalue = [94, 3]"] ;
739 -> 740 ;
741 [label="DebtRatio_scaled <= -0.1731\ngini = 0.0222\nsamples = 89\nvalue = [88, 1]"] ;
740 -> 741 ;
742 [label="gini = 0.0\nsamples = 77\nvalue = [77, 0]"] ;
741 -> 742 ;
743 [label="DebtRatio_scaled <= -0.1731\ngini = 0.1528\nsamples = 12\nvalue = [11, 1]"] ;
741 -> 743 ;
744 [label="gini = 0.0\nsamples = 1\nvalue = [0, 1]"] ;
743 -> 744 ;
745 [label="gini = 0.0\nsamples = 11\nvalue = [11, 0]"] ;
743 -> 745 ;
746 [label="RevolvingUtilizationOfUnsecuredLines_scaled <= -0.0238\ngini = 0.375\nsamples = 8\nvalue = [6, 2]"] ;
740 -> 746 ;
747 [label="gini = 0.0\nsamples = 5\nvalue = [5, 0]"] ;
746 -> 747 ;
748 [label="MonthlyIncome_scaled <= -0.2885\ngini = 0.4444\nsamples = 3\nvalue = [1, 2]"] ;
746 -> 748 ;
749 [label="gini = 0.0\nsamples = 1\nvalue = [1, 0]"] ;
748 -> 749 ;
750 [label="gini = 0.0\nsamples = 2\nvalue = [0, 2]"] ;
748 -> 750 ;
751 [label="gini = 0.0\nsamples = 121\nvalue = [121, 0]"] ;
739 -> 751 ;
752 [label="DebtRatio_scaled <= -0.173\ngini = 0.2449\nsamples = 7\nvalue = [6, 1]"] ;
700 -> 752 ;
753 [label="gini = 0.0\nsamples = 1\nvalue = [0, 1]"] ;
752 -> 753 ;
754 [label="gini = 0.0\nsamples = 6\nvalue = [6, 0]"] ;
752 -> 754 ;
755 [label="MonthlyIncome_scaled <= -0.201\ngini = 0.2055\nsamples = 43\nvalue = [38, 5]"] ;
611 -> 755 ;
756 [label="RevolvingUtilizationOfUnsecuredLines_scaled <= -0.0238\ngini = 0.48\nsamples = 5\nvalue = [2, 3]"] ;
755 -> 756 ;
757 [label="MonthlyIncome_scaled <= -0.2016\ngini = 0.4444\nsamples = 3\nvalue = [2, 1]"] ;
756 -> 757 ;
758 [label="gini = 0.0\nsamples = 2\nvalue = [2, 0]"] ;
757 -> 758 ;
759 [label="gini = 0.0\nsamples = 1\nvalue = [0, 1]"] ;
757 -> 759 ;
760 [label="gini = 0.0\nsamples = 2\nvalue = [0, 2]"] ;
756 -> 760 ;
761 [label="RevolvingUtilizationOfUnsecuredLines_scaled <= -0.0238\ngini = 0.0997\nsamples = 38\nvalue = [36, 2]"] ;
755 -> 761 ;
762 [label="gini = 0.0\nsamples = 24\nvalue = [24, 0]"] ;
761 -> 762 ;
763 [label="RevolvingUtilizationOfUnsecuredLines_scaled <= -0.0238\ngini = 0.2449\nsamples = 14\nvalue = [12, 2]"] ;
761 -> 763 ;
764 [label="gini = 0.0\nsamples = 2\nvalue = [0, 2]"] ;
763 -> 764 ;
765 [label="gini = 0.0\nsamples = 12\nvalue = [12, 0]"] ;
763 -> 765 ;
766 [label="DebtRatio_scaled <= -0.1731\ngini = 0.4444\nsamples = 3\nvalue = [2, 1]"] ;
246 -> 766 ;
767 [label="gini = 0.0\nsamples = 2\nvalue = [2, 0]"] ;
766 -> 767 ;
768 [label="gini = 0.0\nsamples = 1\nvalue = [0, 1]"] ;
766 -> 768 ;
769 [label="RevolvingUtilizationOfUnsecuredLines_scaled <= -0.024\ngini = 0.0298\nsamples = 21917\nvalue = [21585, 332]"] ;
5 -> 769 ;
770 [label="DebtRatio_scaled <= -0.1731\ngini = 0.0271\nsamples = 16758\nvalue = [16528, 230]"] ;
769 -> 770 ;
771 [label="RevolvingUtilizationOfUnsecuredLines_scaled <= -0.0242\ngini = 0.0253\nsamples = 15283\nvalue = [15087, 196]"] ;
770 -> 771 ;
772 [label="DebtRatio_scaled <= -0.1731\ngini = 0.0371\nsamples = 3809\nvalue = [3737, 72]"] ;
771 -> 772 ;
773 [label="MonthlyIncome_scaled <= 14.4117\ngini = 0.0359\nsamples = 3775\nvalue = [3706, 69]"] ;
772 -> 773 ;
774 [label="MonthlyIncome_scaled <= -0.0069\ngini = 0.0354\nsamples = 3770\nvalue = [3702, 68]"] ;
773 -> 774 ;
775 [label="MonthlyIncome_scaled <= -0.0071\ngini = 0.0526\nsamples = 1220\nvalue = [1187, 33]"] ;
774 -> 775 ;
776 [label="MonthlyIncome_scaled <= -0.0678\ngini = 0.0511\nsamples = 1219\nvalue = [1187, 32]"] ;
775 -> 776 ;
777 [label="RevolvingUtilizationOfUnsecuredLines_scaled <= -0.0242\ngini = 0.0342\nsamples = 863\nvalue = [848, 15]"] ;
776 -> 777 ;
778 [label="MonthlyIncome_scaled <= -0.1194\ngini = 0.0416\nsamples = 705\nvalue = [690, 15]"] ;
777 -> 778 ;
779 [label="MonthlyIncome_scaled <= -0.1199\ngini = 0.053\nsamples = 477\nvalue = [464, 13]"] ;
778 -> 779 ;
780 [label="MonthlyIncome_scaled <= -0.1818\ngini = 0.0491\nsamples = 476\nvalue = [464, 12]"] ;
779 -> 780 ;
781 [label="DebtRatio_scaled <= -0.1732\ngini = 0.0189\nsamples = 105\nvalue = [104, 1]"] ;
780 -> 781 ;
782 [label="DebtRatio_scaled <= -0.1732\ngini = 0.0907\nsamples = 21\nvalue = [20, 1]"] ;
781 -> 782 ;
783 [label="gini = 0.0\nsamples = 19\nvalue = [19, 0]"] ;
782 -> 783 ;
784 [label="MonthlyIncome_scaled <= -0.1931\ngini = 0.5\nsamples = 2\nvalue = [1, 1]"] ;
782 -> 784 ;
785 [label="gini = 0.0\nsamples = 1\nvalue = [1, 0]"] ;
784 -> 785 ;
786 [label="gini = 0.0\nsamples = 1\nvalue = [0, 1]"] ;
784 -> 786 ;
787 [label="gini = 0.0\nsamples = 84\nvalue = [84, 0]"] ;
781 -> 787 ;
788 [label="MonthlyIncome_scaled <= -0.1777\ngini = 0.0575\nsamples = 371\nvalue = [360, 11]"] ;
780 -> 788 ;
789 [label="MonthlyIncome_scaled <= -0.1787\ngini = 0.2449\nsamples = 14\nvalue = [12, 2]"] ;
788 -> 789 ;
790 [label="DebtRatio_scaled <= -0.1732\ngini = 0.142\nsamples = 13\nvalue = [12, 1]"] ;
789 -> 790 ;
791 [label="DebtRatio_scaled <= -0.1732\ngini = 0.32\nsamples = 5\nvalue = [4, 1]"] ;
790 -> 791 ;
792 [label="gini = 0.0\nsamples = 4\nvalue = [4, 0]"] ;
791 -> 792 ;
793 [label="gini = 0.0\nsamples = 1\nvalue = [0, 1]"] ;
791 -> 793 ;
794 [label="gini = 0.0\nsamples = 8\nvalue = [8, 0]"] ;
790 -> 794 ;
795 [label="gini = 0.0\nsamples = 1\nvalue = [0, 1]"] ;
789 -> 795 ;
796 [label="MonthlyIncome_scaled <= -0.1604\ngini = 0.0491\nsamples = 357\nvalue = [348, 9]"] ;
788 -> 796 ;
797 [label="MonthlyIncome_scaled <= -0.1759\ngini = 0.0168\nsamples = 118\nvalue = [117, 1]"] ;
796 -> 797 ;
798 [label="DebtRatio_scaled <= -0.1732\ngini = 0.1107\nsamples = 17\nvalue = [16, 1]"] ;
797 -> 798 ;
799 [label="DebtRatio_scaled <= -0.1732\ngini = 0.2449\nsamples = 7\nvalue = [6, 1]"] ;
798 -> 799 ;
800 [label="gini = 0.0\nsamples = 6\nvalue = [6, 0]"] ;
799 -> 800 ;
801 [label="gini = 0.0\nsamples = 1\nvalue = [0, 1]"] ;
799 -> 801 ;
802 [label="gini = 0.0\nsamples = 10\nvalue = [10, 0]"] ;
798 -> 802 ;
803 [label="gini = 0.0\nsamples = 101\nvalue = [101, 0]"] ;
797 -> 803 ;
804 [label="MonthlyIncome_scaled <= -0.1599\ngini = 0.0647\nsamples = 239\nvalue = [231, 8]"] ;
796 -> 804 ;
805 [label="gini = 0.0\nsamples = 1\nvalue = [0, 1]"] ;
804 -> 805 ;
806 [label="MonthlyIncome_scaled <= -0.1559\ngini = 0.0571\nsamples = 238\nvalue = [231, 7]"] ;
804 -> 806 ;
807 [label="RevolvingUtilizationOfUnsecuredLines_scaled <= -0.0242\ngini = 0.2449\nsamples = 7\nvalue = [6, 1]"] ;
806 -> 807 ;
808 [label="gini = 0.0\nsamples = 6\nvalue = [6, 0]"] ;
807 -> 808 ;
809 [label="gini = 0.0\nsamples = 1\nvalue = [0, 1]"] ;
807 -> 809 ;
810 [label="MonthlyIncome_scaled <= -0.1455\ngini = 0.0506\nsamples = 231\nvalue = [225, 6]"] ;
806 -> 810 ;
811 [label="gini = 0.0\nsamples = 45\nvalue = [45, 0]"] ;
810 -> 811 ;
812 [label="MonthlyIncome_scaled <= -0.1435\ngini = 0.0624\nsamples = 186\nvalue = [180, 6]"] ;
810 -> 812 ;
813 [label="MonthlyIncome_scaled <= -0.144\ngini = 0.2604\nsamples = 13\nvalue = [11, 2]"] ;
812 -> 813 ;
814 [label="DebtRatio_scaled <= -0.1732\ngini = 0.1528\nsamples = 12\nvalue = [11, 1]"] ;
813 -> 814 ;
815 [label="DebtRatio_scaled <= -0.1732\ngini = 0.4444\nsamples = 3\nvalue = [2, 1]"] ;
814 -> 815 ;
816 [label="gini = 0.0\nsamples = 2\nvalue = [2, 0]"] ;
815 -> 816 ;
817 [label="gini = 0.0\nsamples = 1\nvalue = [0, 1]"] ;
815 -> 817 ;
818 [label="gini = 0.0\nsamples = 9\nvalue = [9, 0]"] ;
814 -> 818 ;
819 [label="gini = 0.0\nsamples = 1\nvalue = [0, 1]"] ;
813 -> 819 ;
820 [label="DebtRatio_scaled <= -0.1731\ngini = 0.0452\nsamples = 173\nvalue = [169, 4]"] ;
812 -> 820 ;
821 [label="DebtRatio_scaled <= -0.1731\ngini = 0.0563\nsamples = 138\nvalue = [134, 4]"] ;
820 -> 821 ;
822 [label="MonthlyIncome_scaled <= -0.1231\ngini = 0.0428\nsamples = 137\nvalue = [134, 3]"] ;
821 -> 822 ;
823 [label="DebtRatio_scaled <= -0.1732\ngini = 0.0325\nsamples = 121\nvalue = [119, 2]"] ;
822 -> 823 ;
824 [label="DebtRatio_scaled <= -0.1732\ngini = 0.0624\nsamples = 62\nvalue = [60, 2]"] ;
823 -> 824 ;
825 [label="DebtRatio_scaled <= -0.1732\ngini = 0.0328\nsamples = 60\nvalue = [59, 1]"] ;
824 -> 825 ;
826 [label="MonthlyIncome_scaled <= -0.1305\ngini = 0.0689\nsamples = 28\nvalue = [27, 1]"] ;
825 -> 826 ;
827 [label="gini = 0.0\nsamples = 9\nvalue = [9, 0]"] ;
826 -> 827 ;
828 [label="MonthlyIncome_scaled <= -0.1284\ngini = 0.0997\nsamples = 19\nvalue = [18, 1]"] ;
826 -> 828 ;
829 [label="RevolvingUtilizationOfUnsecuredLines_scaled <= -0.0242\ngini = 0.1172\nsamples = 16\nvalue = [15, 1]"] ;
828 -> 829 ;
830 [label="gini = 0.1244\nsamples = 15\nvalue = [14, 1]"] ;
829 -> 830 ;
831 [label="gini = 0.0\nsamples = 1\nvalue = [1, 0]"] ;
829 -> 831 ;
832 [label="gini = 0.0\nsamples = 3\nvalue = [3, 0]"] ;
828 -> 832 ;
833 [label="gini = 0.0\nsamples = 32\nvalue = [32, 0]"] ;
825 -> 833 ;
834 [label="MonthlyIncome_scaled <= -0.1287\ngini = 0.5\nsamples = 2\nvalue = [1, 1]"] ;
824 -> 834 ;
835 [label="gini = 0.0\nsamples = 1\nvalue = [0, 1]"] ;
834 -> 835 ;
836 [label="gini = 0.0\nsamples = 1\nvalue = [1, 0]"] ;
834 -> 836 ;
837 [label="gini = 0.0\nsamples = 59\nvalue = [59, 0]"] ;
823 -> 837 ;
838 [label="MonthlyIncome_scaled <= -0.1229\ngini = 0.1172\nsamples = 16\nvalue = [15, 1]"] ;
822 -> 838 ;
839 [label="gini = 0.0\nsamples = 1\nvalue = [0, 1]"] ;
838 -> 839 ;
840 [label="gini = 0.0\nsamples = 15\nvalue = [15, 0]"] ;
838 -> 840 ;
841 [label="gini = 0.0\nsamples = 1\nvalue = [0, 1]"] ;
821 -> 841 ;
842 [label="gini = 0.0\nsamples = 35\nvalue = [35, 0]"] ;
820 -> 842 ;
843 [label="gini = 0.0\nsamples = 1\nvalue = [0, 1]"] ;
779 -> 843 ;
844 [label="DebtRatio_scaled <= -0.1732\ngini = 0.0174\nsamples = 228\nvalue = [226, 2]"] ;
778 -> 844 ;
845 [label="DebtRatio_scaled <= -0.1732\ngini = 0.0339\nsamples = 116\nvalue = [114, 2]"] ;
844 -> 845 ;
846 [label="DebtRatio_scaled <= -0.1732\ngini = 0.0172\nsamples = 115\nvalue = [114, 1]"] ;
845 -> 846 ;
847 [label="MonthlyIncome_scaled <= -0.098\ngini = 0.0487\nsamples = 40\nvalue = [39, 1]"] ;
846 -> 847 ;
848 [label="gini = 0.0\nsamples = 22\nvalue = [22, 0]"] ;
847 -> 848 ;
849 [label="MonthlyIncome_scaled <= -0.0941\ngini = 0.1049\nsamples = 18\nvalue = [17, 1]"] ;
847 -> 849 ;
850 [label="RevolvingUtilizationOfUnsecuredLines_scaled <= -0.0242\ngini = 0.32\nsamples = 5\nvalue = [4, 1]"] ;
849 -> 850 ;
851 [label="gini = 0.375\nsamples = 4\nvalue = [3, 1]"] ;
850 -> 851 ;
852 [label="gini = 0.0\nsamples = 1\nvalue = [1, 0]"] ;
850 -> 852 ;
853 [label="gini = 0.0\nsamples = 13\nvalue = [13, 0]"] ;
849 -> 853 ;
854 [label="gini = 0.0\nsamples = 75\nvalue = [75, 0]"] ;
846 -> 854 ;
855 [label="gini = 0.0\nsamples = 1\nvalue = [0, 1]"] ;
845 -> 855 ;
856 [label="gini = 0.0\nsamples = 112\nvalue = [112, 0]"] ;
844 -> 856 ;
857 [label="gini = 0.0\nsamples = 158\nvalue = [158, 0]"] ;
777 -> 857 ;
858 [label="MonthlyIncome_scaled <= -0.0647\ngini = 0.0909\nsamples = 356\nvalue = [339, 17]"] ;
776 -> 858 ;
859 [label="MonthlyIncome_scaled <= -0.065\ngini = 0.1769\nsamples = 51\nvalue = [46, 5]"] ;
858 -> 859 ;
860 [label="DebtRatio_scaled <= -0.1731\ngini = 0.1472\nsamples = 50\nvalue = [46, 4]"] ;
859 -> 860 ;
861 [label="DebtRatio_scaled <= -0.1731\ngini = 0.2024\nsamples = 35\nvalue = [31, 4]"] ;
860 -> 861 ;
862 [label="DebtRatio_scaled <= -0.1732\ngini = 0.1609\nsamples = 34\nvalue = [31, 3]"] ;
861 -> 862 ;
863 [label="gini = 0.0\nsamples = 13\nvalue = [13, 0]"] ;
862 -> 863 ;
864 [label="DebtRatio_scaled <= -0.1732\ngini = 0.2449\nsamples = 21\nvalue = [18, 3]"] ;
862 -> 864 ;
865 [label="gini = 0.0\nsamples = 1\nvalue = [0, 1]"] ;
864 -> 865 ;
866 [label="RevolvingUtilizationOfUnsecuredLines_scaled <= -0.0242\ngini = 0.18\nsamples = 20\nvalue = [18, 2]"] ;
864 -> 866 ;
867 [label="DebtRatio_scaled <= -0.1732\ngini = 0.0997\nsamples = 19\nvalue = [18, 1]"] ;
866 -> 867 ;
868 [label="gini = 0.0\nsamples = 12\nvalue = [12, 0]"] ;
867 -> 868 ;
869 [label="DebtRatio_scaled <= -0.1732\ngini = 0.2449\nsamples = 7\nvalue = [6, 1]"] ;
867 -> 869 ;
870 [label="gini = 0.0\nsamples = 1\nvalue = [0, 1]"] ;
869 -> 870 ;
871 [label="gini = 0.0\nsamples = 6\nvalue = [6, 0]"] ;
869 -> 871 ;
872 [label="gini = 0.0\nsamples = 1\nvalue = [0, 1]"] ;
866 -> 872 ;
873 [label="gini = 0.0\nsamples = 1\nvalue = [0, 1]"] ;
861 -> 873 ;
874 [label="gini = 0.0\nsamples = 15\nvalue = [15, 0]"] ;
860 -> 874 ;
875 [label="gini = 0.0\nsamples = 1\nvalue = [0, 1]"] ;
859 -> 875 ;
876 [label="MonthlyIncome_scaled <= -0.0391\ngini = 0.0756\nsamples = 305\nvalue = [293, 12]"] ;
858 -> 876 ;
877 [label="DebtRatio_scaled <= -0.1731\ngini = 0.0377\nsamples = 156\nvalue = [153, 3]"] ;
876 -> 877 ;
878 [label="MonthlyIncome_scaled <= -0.052\ngini = 0.0278\nsamples = 142\nvalue = [140, 2]"] ;
877 -> 878 ;
879 [label="MonthlyIncome_scaled <= -0.0521\ngini = 0.0388\nsamples = 101\nvalue = [99, 2]"] ;
878 -> 879 ;
880 [label="gini = 0.0\nsamples = 33\nvalue = [33, 0]"] ;
879 -> 880 ;
881 [label="DebtRatio_scaled <= -0.1732\ngini = 0.0571\nsamples = 68\nvalue = [66, 2]"] ;
879 -> 881 ;
882 [label="gini = 0.0\nsamples = 20\nvalue = [20, 0]"] ;
881 -> 882 ;
883 [label="DebtRatio_scaled <= -0.1732\ngini = 0.0799\nsamples = 48\nvalue = [46, 2]"] ;
881 -> 883 ;
884 [label="gini = 0.0\nsamples = 1\nvalue = [0, 1]"] ;
883 -> 884 ;
885 [label="DebtRatio_scaled <= -0.1731\ngini = 0.0416\nsamples = 47\nvalue = [46, 1]"] ;
883 -> 885 ;
886 [label="gini = 0.0\nsamples = 31\nvalue = [31, 0]"] ;
885 -> 886 ;
887 [label="DebtRatio_scaled <= -0.1731\ngini = 0.1172\nsamples = 16\nvalue = [15, 1]"] ;
885 -> 887 ;
888 [label="gini = 0.0\nsamples = 1\nvalue = [0, 1]"] ;
887 -> 888 ;
889 [label="gini = 0.0\nsamples = 15\nvalue = [15, 0]"] ;
887 -> 889 ;
890 [label="gini = 0.0\nsamples = 41\nvalue = [41, 0]"] ;
878 -> 890 ;
891 [label="DebtRatio_scaled <= -0.1731\ngini = 0.1327\nsamples = 14\nvalue = [13, 1]"] ;
877 -> 891 ;
892 [label="RevolvingUtilizationOfUnsecuredLines_scaled <= -0.0242\ngini = 0.5\nsamples = 2\nvalue = [1, 1]"] ;
891 -> 892 ;
893 [label="gini = 0.0\nsamples = 1\nvalue = [0, 1]"] ;
892 -> 893 ;
894 [label="gini = 0.0\nsamples = 1\nvalue = [1, 0]"] ;
892 -> 894 ;
895 [label="gini = 0.0\nsamples = 12\nvalue = [12, 0]"] ;
891 -> 895 ;
896 [label="MonthlyIncome_scaled <= -0.0325\ngini = 0.1135\nsamples = 149\nvalue = [140, 9]"] ;
876 -> 896 ;
897 [label="RevolvingUtilizationOfUnsecuredLines_scaled <= -0.0242\ngini = 0.2285\nsamples = 38\nvalue = [33, 5]"] ;
896 -> 897 ;
898 [label="DebtRatio_scaled <= -0.1732\ngini = 0.3107\nsamples = 26\nvalue = [21, 5]"] ;
897 -> 898 ;
899 [label="gini = 0.0\nsamples = 8\nvalue = [8, 0]"] ;
898 -> 899 ;
900 [label="DebtRatio_scaled <= -0.1732\ngini = 0.4012\nsamples = 18\nvalue = [13, 5]"] ;
898 -> 900 ;
901 [label="gini = 0.0\nsamples = 2\nvalue = [0, 2]"] ;
900 -> 901 ;
902 [label="MonthlyIncome_scaled <= -0.039\ngini = 0.3047\nsamples = 16\nvalue = [13, 3]"] ;
900 -> 902 ;
903 [label="DebtRatio_scaled <= -0.1731\ngini = 0.5\nsamples = 2\nvalue = [1, 1]"] ;
902 -> 903 ;
904 [label="gini = 0.0\nsamples = 1\nvalue = [0, 1]"] ;
903 -> 904 ;
905 [label="gini = 0.0\nsamples = 1\nvalue = [1, 0]"] ;
903 -> 905 ;
906 [label="DebtRatio_scaled <= -0.1731\ngini = 0.2449\nsamples = 14\nvalue = [12, 2]"] ;
902 -> 906 ;
907 [label="DebtRatio_scaled <= -0.1731\ngini = 0.2975\nsamples = 11\nvalue = [9, 2]"] ;
906 -> 907 ;
908 [label="DebtRatio_scaled <= -0.1731\ngini = 0.18\nsamples = 10\nvalue = [9, 1]"] ;
907 -> 908 ;
909 [label="DebtRatio_scaled <= -0.1731\ngini = 0.375\nsamples = 4\nvalue = [3, 1]"] ;
908 -> 909 ;
910 [label="gini = 0.0\nsamples = 2\nvalue = [2, 0]"] ;
909 -> 910 ;
911 [label="gini = 0.5\nsamples = 2\nvalue = [1, 1]"] ;
909 -> 911 ;
912 [label="gini = 0.0\nsamples = 6\nvalue = [6, 0]"] ;
908 -> 912 ;
913 [label="gini = 0.0\nsamples = 1\nvalue = [0, 1]"] ;
907 -> 913 ;
914 [label="gini = 0.0\nsamples = 3\nvalue = [3, 0]"] ;
906 -> 914 ;
915 [label="gini = 0.0\nsamples = 12\nvalue = [12, 0]"] ;
897 -> 915 ;
916 [label="DebtRatio_scaled <= -0.1732\ngini = 0.0695\nsamples = 111\nvalue = [107, 4]"] ;
896 -> 916 ;
917 [label="RevolvingUtilizationOfUnsecuredLines_scaled <= -0.0242\ngini = 0.1884\nsamples = 19\nvalue = [17, 2]"] ;
916 -> 917 ;
918 [label="DebtRatio_scaled <= -0.1732\ngini = 0.1049\nsamples = 18\nvalue = [17, 1]"] ;
917 -> 918 ;
919 [label="gini = 0.0\nsamples = 17\nvalue = [17, 0]"] ;
918 -> 919 ;
920 [label="gini = 0.0\nsamples = 1\nvalue = [0, 1]"] ;
918 -> 920 ;
921 [label="gini = 0.0\nsamples = 1\nvalue = [0, 1]"] ;
917 -> 921 ;
922 [label="DebtRatio_scaled <= -0.1731\ngini = 0.0425\nsamples = 92\nvalue = [90, 2]"] ;
916 -> 922 ;
923 [label="gini = 0.0\nsamples = 43\nvalue = [43, 0]"] ;
922 -> 923 ;
924 [label="DebtRatio_scaled <= -0.1731\ngini = 0.0783\nsamples = 49\nvalue = [47, 2]"] ;
922 -> 924 ;
925 [label="gini = 0.0\nsamples = 1\nvalue = [0, 1]"] ;
924 -> 925 ;
926 [label="DebtRatio_scaled <= -0.1731\ngini = 0.0408\nsamples = 48\nvalue = [47, 1]"] ;
924 -> 926 ;
927 [label="gini = 0.0\nsamples = 27\nvalue = [27, 0]"] ;
926 -> 927 ;
928 [label="DebtRatio_scaled <= -0.1731\ngini = 0.0907\nsamples = 21\nvalue = [20, 1]"] ;
926 -> 928 ;
929 [label="gini = 0.0\nsamples = 1\nvalue = [0, 1]"] ;
928 -> 929 ;
930 [label="gini = 0.0\nsamples = 20\nvalue = [20, 0]"] ;
928 -> 930 ;
931 [label="gini = 0.0\nsamples = 1\nvalue = [0, 1]"] ;
775 -> 931 ;
932 [label="MonthlyIncome_scaled <= 0.142\ngini = 0.0271\nsamples = 2550\nvalue = [2515, 35]"] ;
774 -> 932 ;
933 [label="DebtRatio_scaled <= -0.1732\ngini = 0.0152\nsamples = 1304\nvalue = [1294, 10]"] ;
932 -> 933 ;
934 [label="MonthlyIncome_scaled <= -0.0037\ngini = 0.0084\nsamples = 711\nvalue = [708, 3]"] ;
933 -> 934 ;
935 [label="MonthlyIncome_scaled <= -0.0048\ngini = 0.0215\nsamples = 184\nvalue = [182, 2]"] ;
934 -> 935 ;
936 [label="gini = 0.0\nsamples = 61\nvalue = [61, 0]"] ;
935 -> 936 ;
937 [label="RevolvingUtilizationOfUnsecuredLines_scaled <= -0.0242\ngini = 0.032\nsamples = 123\nvalue = [121, 2]"] ;
935 -> 937 ;
938 [label="gini = 0.0377\nsamples = 104\nvalue = [102, 2]"] ;
937 -> 938 ;
939 [label="gini = 0.0\nsamples = 19\nvalue = [19, 0]"] ;
937 -> 939 ;
940 [label="MonthlyIncome_scaled <= 0.0012\ngini = 0.0038\nsamples = 527\nvalue = [526, 1]"] ;
934 -> 940 ;
941 [label="MonthlyIncome_scaled <= 0.0004\ngini = 0.0097\nsamples = 205\nvalue = [204, 1]"] ;
940 -> 941 ;
942 [label="gini = 0.0\nsamples = 140\nvalue = [140, 0]"] ;
941 -> 942 ;
943 [label="RevolvingUtilizationOfUnsecuredLines_scaled <= -0.0242\ngini = 0.0303\nsamples = 65\nvalue = [64, 1]"] ;
941 -> 943 ;
944 [label="gini = 0.0345\nsamples = 57\nvalue = [56, 1]"] ;
943 -> 944 ;
945 [label="gini = 0.0\nsamples = 8\nvalue = [8, 0]"] ;
943 -> 945 ;
946 [label="gini = 0.0\nsamples = 322\nvalue = [322, 0]"] ;
940 -> 946 ;
947 [label="DebtRatio_scaled <= -0.1732\ngini = 0.0233\nsamples = 593\nvalue = [586, 7]"] ;
933 -> 947 ;
948 [label="gini = 0.0\nsamples = 1\nvalue = [0, 1]"] ;
947 -> 948 ;
949 [label="DebtRatio_scaled <= -0.1732\ngini = 0.0201\nsamples = 592\nvalue = [586, 6]"] ;
947 -> 949 ;
950 [label="MonthlyIncome_scaled <= 0.0871\ngini = 0.4444\nsamples = 3\nvalue = [2, 1]"] ;
949 -> 950 ;
951 [label="gini = 0.0\nsamples = 2\nvalue = [2, 0]"] ;
950 -> 951 ;
952 [label="gini = 0.0\nsamples = 1\nvalue = [0, 1]"] ;
950 -> 952 ;
953 [label="MonthlyIncome_scaled <= 0.0412\ngini = 0.0168\nsamples = 589\nvalue = [584, 5]"] ;
949 -> 953 ;
954 [label="MonthlyIncome_scaled <= 0.0409\ngini = 0.0357\nsamples = 220\nvalue = [216, 4]"] ;
953 -> 954 ;
955 [label="DebtRatio_scaled <= -0.1732\ngini = 0.028\nsamples = 211\nvalue = [208, 3]"] ;
954 -> 955 ;
956 [label="DebtRatio_scaled <= -0.1732\ngini = 0.074\nsamples = 52\nvalue = [50, 2]"] ;
955 -> 956 ;
957 [label="MonthlyIncome_scaled <= 0.0273\ngini = 0.0384\nsamples = 51\nvalue = [50, 1]"] ;
956 -> 957 ;
958 [label="gini = 0.0\nsamples = 39\nvalue = [39, 0]"] ;
957 -> 958 ;
959 [label="MonthlyIncome_scaled <= 0.0281\ngini = 0.1528\nsamples = 12\nvalue = [11, 1]"] ;
957 -> 959 ;
960 [label="gini = 0.0\nsamples = 1\nvalue = [0, 1]"] ;
959 -> 960 ;
961 [label="gini = 0.0\nsamples = 11\nvalue = [11, 0]"] ;
959 -> 961 ;
962 [label="gini = 0.0\nsamples = 1\nvalue = [0, 1]"] ;
956 -> 962 ;
963 [label="MonthlyIncome_scaled <= 0.0131\ngini = 0.0125\nsamples = 159\nvalue = [158, 1]"] ;
955 -> 963 ;
964 [label="MonthlyIncome_scaled <= 0.0118\ngini = 0.0303\nsamples = 65\nvalue = [64, 1]"] ;
963 -> 964 ;
965 [label="gini = 0.0\nsamples = 59\nvalue = [59, 0]"] ;
964 -> 965 ;
966 [label="DebtRatio_scaled <= -0.1731\ngini = 0.2778\nsamples = 6\nvalue = [5, 1]"] ;
964 -> 966 ;
967 [label="gini = 0.0\nsamples = 1\nvalue = [0, 1]"] ;
966 -> 967 ;
968 [label="gini = 0.0\nsamples = 5\nvalue = [5, 0]"] ;
966 -> 968 ;
969 [label="gini = 0.0\nsamples = 94\nvalue = [94, 0]"] ;
963 -> 969 ;
970 [label="RevolvingUtilizationOfUnsecuredLines_scaled <= -0.0242\ngini = 0.1975\nsamples = 9\nvalue = [8, 1]"] ;
954 -> 970 ;
971 [label="gini = 0.0\nsamples = 7\nvalue = [7, 0]"] ;
970 -> 971 ;
972 [label="RevolvingUtilizationOfUnsecuredLines_scaled <= -0.0242\ngini = 0.5\nsamples = 2\nvalue = [1, 1]"] ;
970 -> 972 ;
973 [label="gini = 0.0\nsamples = 1\nvalue = [0, 1]"] ;
972 -> 973 ;
974 [label="gini = 0.0\nsamples = 1\nvalue = [1, 0]"] ;
972 -> 974 ;
975 [label="DebtRatio_scaled <= -0.1731\ngini = 0.0054\nsamples = 369\nvalue = [368, 1]"] ;
953 -> 975 ;
976 [label="gini = 0.0\nsamples = 262\nvalue = [262, 0]"] ;
975 -> 976 ;
977 [label="DebtRatio_scaled <= -0.1731\ngini = 0.0185\nsamples = 107\nvalue = [106, 1]"] ;
975 -> 977 ;
978 [label="MonthlyIncome_scaled <= 0.071\ngini = 0.4444\nsamples = 3\nvalue = [2, 1]"] ;
977 -> 978 ;
979 [label="gini = 0.0\nsamples = 1\nvalue = [0, 1]"] ;
978 -> 979 ;
980 [label="gini = 0.0\nsamples = 2\nvalue = [2, 0]"] ;
978 -> 980 ;
981 [label="gini = 0.0\nsamples = 104\nvalue = [104, 0]"] ;
977 -> 981 ;
982 [label="MonthlyIncome_scaled <= 0.1427\ngini = 0.0393\nsamples = 1246\nvalue = [1221, 25]"] ;
932 -> 982 ;
983 [label="DebtRatio_scaled <= -0.1731\ngini = 0.1913\nsamples = 28\nvalue = [25, 3]"] ;
982 -> 983 ;
984 [label="DebtRatio_scaled <= -0.1731\ngini = 0.0832\nsamples = 23\nvalue = [22, 1]"] ;
983 -> 984 ;
985 [label="gini = 0.0\nsamples = 12\nvalue = [12, 0]"] ;
984 -> 985 ;
986 [label="DebtRatio_scaled <= -0.1731\ngini = 0.1653\nsamples = 11\nvalue = [10, 1]"] ;
984 -> 986 ;
987 [label="gini = 0.0\nsamples = 1\nvalue = [0, 1]"] ;
986 -> 987 ;
988 [label="gini = 0.0\nsamples = 10\nvalue = [10, 0]"] ;
986 -> 988 ;
989 [label="DebtRatio_scaled <= -0.1731\ngini = 0.48\nsamples = 5\nvalue = [3, 2]"] ;
983 -> 989 ;
990 [label="gini = 0.0\nsamples = 2\nvalue = [0, 2]"] ;
989 -> 990 ;
991 [label="gini = 0.0\nsamples = 3\nvalue = [3, 0]"] ;
989 -> 991 ;
992 [label="MonthlyIncome_scaled <= 0.2902\ngini = 0.0355\nsamples = 1218\nvalue = [1196, 22]"] ;
982 -> 992 ;
993 [label="MonthlyIncome_scaled <= 0.2843\ngini = 0.06\nsamples = 452\nvalue = [438, 14]"] ;
992 -> 993 ;
994 [label="MonthlyIncome_scaled <= 0.2523\ngini = 0.0534\nsamples = 437\nvalue = [425, 12]"] ;
993 -> 994 ;
995 [label="MonthlyIncome_scaled <= 0.2519\ngini = 0.0672\nsamples = 316\nvalue = [305, 11]"] ;
994 -> 995 ;
996 [label="MonthlyIncome_scaled <= 0.2069\ngini = 0.0619\nsamples = 313\nvalue = [303, 10]"] ;
995 -> 996 ;
997 [label="RevolvingUtilizationOfUnsecuredLines_scaled <= -0.0242\ngini = 0.0375\nsamples = 209\nvalue = [205, 4]"] ;
996 -> 997 ;
998 [label="MonthlyIncome_scaled <= 0.1646\ngini = 0.0529\nsamples = 147\nvalue = [143, 4]"] ;
997 -> 998 ;
999 [label="gini = 0.0\nsamples = 42\nvalue = [42, 0]"] ;
998 -> 999 ;
1000 [label="MonthlyIncome_scaled <= 0.1653\ngini = 0.0733\nsamples = 105\nvalue = [101, 4]"] ;
998 -> 1000 ;
1001 [label="gini = 0.0\nsamples = 1\nvalue = [0, 1]"] ;
1000 -> 1001 ;
1002 [label="MonthlyIncome_scaled <= 0.1666\ngini = 0.056\nsamples = 104\nvalue = [101, 3]"] ;
1000 -> 1002 ;
1003 [label="DebtRatio_scaled <= -0.1731\ngini = 0.32\nsamples = 5\nvalue = [4, 1]"] ;
1002 -> 1003 ;
1004 [label="gini = 0.0\nsamples = 3\nvalue = [3, 0]"] ;
1003 -> 1004 ;
1005 [label="DebtRatio_scaled <= -0.1731\ngini = 0.5\nsamples = 2\nvalue = [1, 1]"] ;
1003 -> 1005 ;
1006 [label="gini = 0.0\nsamples = 1\nvalue = [0, 1]"] ;
1005 -> 1006 ;
1007 [label="gini = 0.0\nsamples = 1\nvalue = [1, 0]"] ;
1005 -> 1007 ;
1008 [label="MonthlyIncome_scaled <= 0.187\ngini = 0.0396\nsamples = 99\nvalue = [97, 2]"] ;
1002 -> 1008 ;
1009 [label="gini = 0.0\nsamples = 59\nvalue = [59, 0]"] ;
1008 -> 1009 ;
1010 [label="MonthlyIncome_scaled <= 0.1875\ngini = 0.095\nsamples = 40\nvalue = [38, 2]"] ;
1008 -> 1010 ;
1011 [label="DebtRatio_scaled <= -0.1731\ngini = 0.5\nsamples = 2\nvalue = [1, 1]"] ;
1010 -> 1011 ;
1012 [label="gini = 0.0\nsamples = 1\nvalue = [0, 1]"] ;
1011 -> 1012 ;
1013 [label="gini = 0.0\nsamples = 1\nvalue = [1, 0]"] ;
1011 -> 1013 ;
1014 [label="MonthlyIncome_scaled <= 0.1962\ngini = 0.0512\nsamples = 38\nvalue = [37, 1]"] ;
1010 -> 1014 ;
1015 [label="gini = 0.0\nsamples = 20\nvalue = [20, 0]"] ;
1014 -> 1015 ;
1016 [label="MonthlyIncome_scaled <= 0.1966\ngini = 0.1049\nsamples = 18\nvalue = [17, 1]"] ;
1014 -> 1016 ;
1017 [label="DebtRatio_scaled <= -0.1731\ngini = 0.375\nsamples = 4\nvalue = [3, 1]"] ;
1016 -> 1017 ;
1018 [label="gini = 0.0\nsamples = 2\nvalue = [2, 0]"] ;
1017 -> 1018 ;
1019 [label="DebtRatio_scaled <= -0.1731\ngini = 0.5\nsamples = 2\nvalue = [1, 1]"] ;
1017 -> 1019 ;
1020 [label="gini = 0.0\nsamples = 1\nvalue = [0, 1]"] ;
1019 -> 1020 ;
1021 [label="gini = 0.0\nsamples = 1\nvalue = [1, 0]"] ;
1019 -> 1021 ;
1022 [label="gini = 0.0\nsamples = 14\nvalue = [14, 0]"] ;
1016 -> 1022 ;
1023 [label="gini = 0.0\nsamples = 62\nvalue = [62, 0]"] ;
997 -> 1023 ;
1024 [label="MonthlyIncome_scaled <= 0.2079\ngini = 0.1087\nsamples = 104\nvalue = [98, 6]"] ;
996 -> 1024 ;
1025 [label="gini = 0.0\nsamples = 1\nvalue = [0, 1]"] ;
1024 -> 1025 ;
1026 [label="RevolvingUtilizationOfUnsecuredLines_scaled <= -0.0242\ngini = 0.0924\nsamples = 103\nvalue = [98, 5]"] ;
1024 -> 1026 ;
1027 [label="MonthlyIncome_scaled <= 0.2465\ngini = 0.047\nsamples = 83\nvalue = [81, 2]"] ;
1026 -> 1027 ;
1028 [label="DebtRatio_scaled <= -0.1732\ngini = 0.0263\nsamples = 75\nvalue = [74, 1]"] ;
1027 -> 1028 ;
1029 [label="MonthlyIncome_scaled <= 0.2211\ngini = 0.18\nsamples = 10\nvalue = [9, 1]"] ;
1028 -> 1029 ;
1030 [label="MonthlyIncome_scaled <= 0.2188\ngini = 0.32\nsamples = 5\nvalue = [4, 1]"] ;
1029 -> 1030 ;
1031 [label="gini = 0.0\nsamples = 4\nvalue = [4, 0]"] ;
1030 -> 1031 ;
1032 [label="gini = 0.0\nsamples = 1\nvalue = [0, 1]"] ;
1030 -> 1032 ;
1033 [label="gini = 0.0\nsamples = 5\nvalue = [5, 0]"] ;
1029 -> 1033 ;
1034 [label="gini = 0.0\nsamples = 65\nvalue = [65, 0]"] ;
1028 -> 1034 ;
1035 [label="MonthlyIncome_scaled <= 0.2476\ngini = 0.2188\nsamples = 8\nvalue = [7, 1]"] ;
1027 -> 1035 ;
1036 [label="DebtRatio_scaled <= -0.1731\ngini = 0.5\nsamples = 2\nvalue = [1, 1]"] ;
1035 -> 1036 ;
1037 [label="gini = 0.0\nsamples = 1\nvalue = [0, 1]"] ;
1036 -> 1037 ;
1038 [label="gini = 0.0\nsamples = 1\nvalue = [1, 0]"] ;
1036 -> 1038 ;
1039 [label="gini = 0.0\nsamples = 6\nvalue = [6, 0]"] ;
1035 -> 1039 ;
1040 [label="MonthlyIncome_scaled <= 0.2105\ngini = 0.255\nsamples = 20\nvalue = [17, 3]"] ;
1026 -> 1040 ;
1041 [label="gini = 0.0\nsamples = 1\nvalue = [0, 1]"] ;
1040 -> 1041 ;
1042 [label="MonthlyIncome_scaled <= 0.2268\ngini = 0.1884\nsamples = 19\nvalue = [17, 2]"] ;
1040 -> 1042 ;
1043 [label="gini = 0.0\nsamples = 8\nvalue = [8, 0]"] ;
1042 -> 1043 ;
1044 [label="MonthlyIncome_scaled <= 0.23\ngini = 0.2975\nsamples = 11\nvalue = [9, 2]"] ;
1042 -> 1044 ;
1045 [label="gini = 0.0\nsamples = 1\nvalue = [0, 1]"] ;
1044 -> 1045 ;
1046 [label="RevolvingUtilizationOfUnsecuredLines_scaled <= -0.0242\ngini = 0.18\nsamples = 10\nvalue = [9, 1]"] ;
1044 -> 1046 ;
1047 [label="DebtRatio_scaled <= -0.1731\ngini = 0.5\nsamples = 2\nvalue = [1, 1]"] ;
1046 -> 1047 ;
1048 [label="gini = 0.0\nsamples = 1\nvalue = [0, 1]"] ;
1047 -> 1048 ;
1049 [label="gini = 0.0\nsamples = 1\nvalue = [1, 0]"] ;
1047 -> 1049 ;
1050 [label="gini = 0.0\nsamples = 8\nvalue = [8, 0]"] ;
1046 -> 1050 ;
1051 [label="DebtRatio_scaled <= -0.1732\ngini = 0.4444\nsamples = 3\nvalue = [2, 1]"] ;
995 -> 1051 ;
1052 [label="gini = 0.5\nsamples = 2\nvalue = [1, 1]"] ;
1051 -> 1052 ;
1053 [label="gini = 0.0\nsamples = 1\nvalue = [1, 0]"] ;
1051 -> 1053 ;
1054 [label="DebtRatio_scaled <= -0.1731\ngini = 0.0164\nsamples = 121\nvalue = [120, 1]"] ;
994 -> 1054 ;
1055 [label="gini = 0.0\nsamples = 82\nvalue = [82, 0]"] ;
1054 -> 1055 ;
1056 [label="DebtRatio_scaled <= -0.1731\ngini = 0.05\nsamples = 39\nvalue = [38, 1]"] ;
1054 -> 1056 ;
1057 [label="gini = 0.0\nsamples = 1\nvalue = [0, 1]"] ;
1056 -> 1057 ;
1058 [label="gini = 0.0\nsamples = 38\nvalue = [38, 0]"] ;
1056 -> 1058 ;
1059 [label="DebtRatio_scaled <= -0.1731\ngini = 0.2311\nsamples = 15\nvalue = [13, 2]"] ;
993 -> 1059 ;
1060 [label="DebtRatio_scaled <= -0.1732\ngini = 0.4082\nsamples = 7\nvalue = [5, 2]"] ;
1059 -> 1060 ;
1061 [label="MonthlyIncome_scaled <= 0.2844\ngini = 0.2778\nsamples = 6\nvalue = [5, 1]"] ;
1060 -> 1061 ;
1062 [label="DebtRatio_scaled <= -0.1732\ngini = 0.5\nsamples = 2\nvalue = [1, 1]"] ;
1061 -> 1062 ;
1063 [label="gini = 0.0\nsamples = 1\nvalue = [0, 1]"] ;
1062 -> 1063 ;
1064 [label="gini = 0.0\nsamples = 1\nvalue = [1, 0]"] ;
1062 -> 1064 ;
1065 [label="gini = 0.0\nsamples = 4\nvalue = [4, 0]"] ;
1061 -> 1065 ;
1066 [label="gini = 0.0\nsamples = 1\nvalue = [0, 1]"] ;
1060 -> 1066 ;
1067 [label="gini = 0.0\nsamples = 8\nvalue = [8, 0]"] ;
1059 -> 1067 ;
1068 [label="DebtRatio_scaled <= -0.1731\ngini = 0.0207\nsamples = 766\nvalue = [758, 8]"] ;
992 -> 1068 ;
1069 [label="DebtRatio_scaled <= -0.1732\ngini = 0.0183\nsamples = 756\nvalue = [749, 7]"] ;
1068 -> 1069 ;
1070 [label="gini = 0.0\nsamples = 229\nvalue = [229, 0]"] ;
1069 -> 1070 ;
1071 [label="DebtRatio_scaled <= -0.1732\ngini = 0.0262\nsamples = 527\nvalue = [520, 7]"] ;
1069 -> 1071 ;
1072 [label="MonthlyIncome_scaled <= 0.6338\ngini = 0.4444\nsamples = 3\nvalue = [2, 1]"] ;
1071 -> 1072 ;
1073 [label="gini = 0.0\nsamples = 1\nvalue = [0, 1]"] ;
1072 -> 1073 ;
1074 [label="gini = 0.0\nsamples = 2\nvalue = [2, 0]"] ;
1072 -> 1074 ;
1075 [label="RevolvingUtilizationOfUnsecuredLines_scaled <= -0.0242\ngini = 0.0226\nsamples = 524\nvalue = [518, 6]"] ;
1071 -> 1075 ;
1076 [label="MonthlyIncome_scaled <= 1.7562\ngini = 0.0193\nsamples = 514\nvalue = [509, 5]"] ;
1075 -> 1076 ;
1077 [label="MonthlyIncome_scaled <= 0.3607\ngini = 0.0158\nsamples = 501\nvalue = [497, 4]"] ;
1076 -> 1077 ;
1078 [label="MonthlyIncome_scaled <= 0.3583\ngini = 0.0484\nsamples = 121\nvalue = [118, 3]"] ;
1077 -> 1078 ;
1079 [label="DebtRatio_scaled <= -0.1731\ngini = 0.0333\nsamples = 118\nvalue = [116, 2]"] ;
1078 -> 1079 ;
1080 [label="gini = 0.0\nsamples = 89\nvalue = [89, 0]"] ;
1079 -> 1080 ;
1081 [label="DebtRatio_scaled <= -0.1731\ngini = 0.1284\nsamples = 29\nvalue = [27, 2]"] ;
1079 -> 1081 ;
1082 [label="MonthlyIncome_scaled <= 0.3297\ngini = 0.5\nsamples = 2\nvalue = [1, 1]"] ;
1081 -> 1082 ;
1083 [label="gini = 0.0\nsamples = 1\nvalue = [0, 1]"] ;
1082 -> 1083 ;
1084 [label="gini = 0.0\nsamples = 1\nvalue = [1, 0]"] ;
1082 -> 1084 ;
1085 [label="DebtRatio_scaled <= -0.1731\ngini = 0.0713\nsamples = 27\nvalue = [26, 1]"] ;
1081 -> 1085 ;
1086 [label="DebtRatio_scaled <= -0.1731\ngini = 0.1653\nsamples = 11\nvalue = [10, 1]"] ;
1085 -> 1086 ;
1087 [label="gini = 0.0\nsamples = 10\nvalue = [10, 0]"] ;
1086 -> 1087 ;
1088 [label="gini = 0.0\nsamples = 1\nvalue = [0, 1]"] ;
1086 -> 1088 ;
1089 [label="gini = 0.0\nsamples = 16\nvalue = [16, 0]"] ;
1085 -> 1089 ;
1090 [label="DebtRatio_scaled <= -0.1731\ngini = 0.4444\nsamples = 3\nvalue = [2, 1]"] ;
1078 -> 1090 ;
1091 [label="gini = 0.0\nsamples = 2\nvalue = [2, 0]"] ;
1090 -> 1091 ;
1092 [label="gini = 0.0\nsamples = 1\nvalue = [0, 1]"] ;
1090 -> 1092 ;
1093 [label="MonthlyIncome_scaled <= 0.8783\ngini = 0.0052\nsamples = 380\nvalue = [379, 1]"] ;
1077 -> 1093 ;
1094 [label="gini = 0.0\nsamples = 302\nvalue = [302, 0]"] ;
1093 -> 1094 ;
1095 [label="MonthlyIncome_scaled <= 0.8893\ngini = 0.0253\nsamples = 78\nvalue = [77, 1]"] ;
1093 -> 1095 ;
1096 [label="DebtRatio_scaled <= -0.1732\ngini = 0.375\nsamples = 4\nvalue = [3, 1]"] ;
1095 -> 1096 ;
1097 [label="gini = 0.0\nsamples = 2\nvalue = [2, 0]"] ;
1096 -> 1097 ;
1098 [label="DebtRatio_scaled <= -0.1731\ngini = 0.5\nsamples = 2\nvalue = [1, 1]"] ;
1096 -> 1098 ;
1099 [label="gini = 0.0\nsamples = 1\nvalue = [0, 1]"] ;
1098 -> 1099 ;
1100 [label="gini = 0.0\nsamples = 1\nvalue = [1, 0]"] ;
1098 -> 1100 ;
1101 [label="gini = 0.0\nsamples = 74\nvalue = [74, 0]"] ;
1095 -> 1101 ;
1102 [label="MonthlyIncome_scaled <= 1.7951\ngini = 0.142\nsamples = 13\nvalue = [12, 1]"] ;
1076 -> 1102 ;
1103 [label="gini = 0.0\nsamples = 1\nvalue = [0, 1]"] ;
1102 -> 1103 ;
1104 [label="gini = 0.0\nsamples = 12\nvalue = [12, 0]"] ;
1102 -> 1104 ;
1105 [label="RevolvingUtilizationOfUnsecuredLines_scaled <= -0.0242\ngini = 0.18\nsamples = 10\nvalue = [9, 1]"] ;
1075 -> 1105 ;
1106 [label="MonthlyIncome_scaled <= 0.569\ngini = 0.4444\nsamples = 3\nvalue = [2, 1]"] ;
1105 -> 1106 ;
1107 [label="gini = 0.0\nsamples = 2\nvalue = [2, 0]"] ;
1106 -> 1107 ;
1108 [label="gini = 0.0\nsamples = 1\nvalue = [0, 1]"] ;
1106 -> 1108 ;
1109 [label="gini = 0.0\nsamples = 7\nvalue = [7, 0]"] ;
1105 -> 1109 ;
1110 [label="DebtRatio_scaled <= -0.1731\ngini = 0.18\nsamples = 10\nvalue = [9, 1]"] ;
1068 -> 1110 ;
1111 [label="gini = 0.0\nsamples = 1\nvalue = [0, 1]"] ;
